{"learner":{"attributes":{"best_iteration":"299","best_score":"0.4260252522284306","scikit_learn":"{\"_estimator_type\": \"classifier\"}"},"feature_names":["latitude","longitude","temperature","relative_humidity","visibility","cloud_cover_low","cloud_cover_mid","cloud_cover_high","weather_code","solar_elevation","temp_lag_1","rh_lag_1","cloud_low_lag_1","temp_lag_2","rh_lag_2","cloud_low_lag_2","temp_lag_3","rh_lag_3","cloud_low_lag_3","temp_change_1h","cloud_low_change_1h"],"feature_types":["float","float","float","int","float","int","int","int","int","float","float","float","float","float","float","float","float","float","float","float","float"],"gradient_booster":{"model":{"cats":{"enc":[],"feature_segments":[],"sorted_idx":[]},"gbtree_model_param":{"num_parallel_tree":"1","num_trees":"300"},"iteration_indptr":[0,1,2,3,4,5,6,7,8,9,10,11,12,13,14,15,16,17,18,19,20,21,22,23,24,25,26,27,28,29,30,31,32,33,34,35,36,37,38,39,40,41,42,43,44,45,46,47,48,49,50,51,52,53,54,55,56,57,58,59,60,61,62,63,64,65,66,67,68,69,70,71,72,73,74,75,76,77,78,79,80,81,82,83,84,85,86,87,88,89,90,91,92,93,94,95,96,97,98,99,100,101,102,103,104,105,106,107,108,109,110,111,112,113,114,115,116,117,118,119,120,121,122,123,124,125,126,127,128,129,130,131,132,133,134,135,136,137,138,139,140,141,142,143,144,145,146,147,148,149,150,151,152,153,154,155,156,157,158,159,160,161,162,163,164,165,166,167,168,169,170,171,172,173,174,175,176,177,178,179,180,181,182,183,184,185,186,187,188,189,190,191,192,193,194,195,196,197,198,199,200,201,202,203,204,205,206,207,208,209,210,211,212,213,214,215,216,217,218,219,220,221,222,223,224,225,226,227,228,229,230,231,232,233,234,235,236,237,238,239,240,241,242,243,244,245,246,247,248,249,250,251,252,253,254,255,256,257,258,259,260,261,262,263,264,265,266,267,268,269,270,271,272,273,274,275,276,277,278,279,280,281,282,283,284,285,286,287,288,289,290,291,292,293,294,295,296,297,298,299,300],"tree_info":[0,0,0,0,0,0,0,0,0,0,0,0,0,0,0,0,0,0,0,0,0,0,0,0,0,0,0,0,0,0,0,0,0,0,0,0,0,0,0,0,0,0,0,0,0,0,0,0,0,0,0,0,0,0,0,0,0,0,0,0,0,0,0,0,0,0,0,0,0,0,0,0,0,0,0,0,0,0,0,0,0,0,0,0,0,0,0,0,0,0,0,0,0,0,0,0,0,0,0,0,0,0,0,0,0,0,0,0,0,0,0,0,0,0,0,0,0,0,0,0,0,0,0,0,0,0,0,0,0,0,0,0,0,0,0,0,0,0,0,0,0,0,0,0,0,0,0,0,0,0,0,0,0,0,0,0,0,0,0,0,0,0,0,0,0,0,0,0,0,0,0,0,0,0,0,0,0,0,0,0,0,0,0,0,0,0,0,0,0,0,0,0,0,0,0,0,0,0,0,0,0,0,0,0,0,0,0,0,0,0,0,0,0,0,0,0,0,0,0,0,0,0,0,0,0,0,0,0,0,0,0,0,0,0,0,0,0,0,0,0,0,0,0,0,0,0,0,0,0,0,0,0,0,0,0,0,0,0,0,0,0,0,0,0,0,0,0,0,0,0,0,0,0,0,0,0,0,0,0,0,0,0,0,0,0,0,0,0,0,0,0,0,0,0,0,0,0,0,0,0],"trees":[{"base_weights":[6.4197783E-3,2.910723E-1,-6.426581E-1,4.0573084E-1,-6.1475843E-1,-2.7090827E-1,-1.2891874E0,1.0988203E0,1.9128643E-1,-3.4905255E-1,-1.6121294E0,5.8623884E-2,-4.198462E-1,-7.065905E-1,-1.6813749E0,1.4430664E0,-7.658425E-1,-3.3942334E-2,1.1280893E0,1.4498141E0,-4.728913E-1,-2.5459146E-1,-1.677316E0,-4.750854E-1,1.8420464E0,-4.903998E-1,7.95233E-1,-1.5486182E-1,-8.662288E-1,-1.7199669E0,1.2833024E0,1.616178E0,-4.133183E-2,-1.2586845E-1,-1.2226771E0,4.3807647E-1,-3.8186133E-1,1.7384957E0,-5.4756683E-1,9.81609E-2,-4.214219E-1,-3.5479984E-1,-1.215638E0,5.8517283E-1,-1.2778789E0,-1.778695E-1,-1.712622E0,1.112171E0,-5.108287E-1,-4.6252075E-1,1.9393989E0,-2.7752224E-1,-8.3495915E-1,1.1065505E0,-1.1133443E0,-4.1797438E-1,1.79202E-1,-9.090307E-1,4.8457277E-1,-1.777019E0,-7.971449E-1,-6.942142E-1,8.812964E-2,-5.674934E-2,8.459433E-2,1.5504506E-2,-6.1759807E-2,3.432518E-2,-2.3475045E-2,-1.23950215E-2,-7.969142E-2,-1.9213552E-2,3.463131E-2,-2.598463E-2,9.633387E-3,6.269837E-2,9.780638E-2,-6.5795295E-2,7.958857E-3,-4.7898717E-2,7.400321E-2,-3.1196658E-2,-6.214671E-3,-1.1003526E-2,-6.733664E-2,-6.0000002E-2,5.7029914E-2,-1.0633447E-2,-8.0000006E-2,-7.1428575E-2,3.810131E-2,-8.921303E-2,-6.6236034E-2,2.6638592E-2,8.767953E-2,-6.487353E-2,-2.3216452E-2,4.561232E-2,-6.5190546E-2,9.955449E-2,7.3864195E-3,-8.564791E-3,-3.397668E-2,-2.2801233E-2,-6.360425E-2,-1.750629E-2,9.180803E-2,3.1584512E-2,-6.7836724E-2,-5.8103155E-2,-9.575385E-3,-4.2310234E-2,1.55366855E-2,1.8489333E-2,-4.6672683E-2,6.947569E-2,-2.1261664E-2,-9.247761E-2,-8.0713294E-2,5.736818E-3,-6.743342E-2,9.570079E-3,-6.0000002E-2],"categories":[],"categories_nodes":[],"categories_segments":[],"categories_sizes":[],"default_left":[0,0,0,0,0,0,0,0,0,0,0,0,0,0,0,1,0,0,0,0,0,0,0,0,0,0,0,0,0,0,0,0,0,0,0,1,0,0,1,0,0,0,0,0,0,0,0,0,0,0,0,0,0,0,0,0,0,0,0,0,0,0,0,0,0,0,0,0,0,0,0,0,0,0,0,0,0,0,0,0,0,0,0,0,0,0,0,0,0,0,0,0,0,0,0,0,0,0,0,0,0,0,0,0,0,0,0,0,0,0,0,0,0,0,0,0,0,0,0,0,0,0,0],"id":0,"left_children":[1,3,5,7,9,11,13,15,17,19,21,23,25,27,29,31,33,35,37,39,41,43,45,47,49,51,53,55,57,59,61,63,65,67,69,71,73,75,77,-1,79,81,83,85,87,89,91,93,95,97,99,101,103,105,107,109,111,113,115,117,119,121,-1,-1,-1,-1,-1,-1,-1,-1,-1,-1,-1,-1,-1,-1,-1,-1,-1,-1,-1,-1,-1,-1,-1,-1,-1,-1,-1,-1,-1,-1,-1,-1,-1,-1,-1,-1,-1,-1,-1,-1,-1,-1,-1,-1,-1,-1,-1,-1,-1,-1,-1,-1,-1,-1,-1,-1,-1,-1,-1,-1,-1],"loss_changes":[3.196292E3,1.2492501E3,1.267207E3,1.5864225E3,3.5761032E2,1.6443039E2,4.3867188E2,1.620145E3,1.7204619E3,2.3871825E2,2.4708801E1,9.941942E2,1.9817963E2,6.823593E1,1.3376416E2,5.4728174E2,1.14958435E2,1.0798477E3,1.6174727E3,6.718051E1,8.732007E1,1.2944334E1,1.4034119E1,4.6182785E1,5.4871704E1,1.5975519E2,7.668932E1,1.5493446E1,3.5236786E1,5.8365967E1,1.5770693E1,3.9915137E2,9.410364E1,4.641371E1,8.268002E1,5.8432336E2,2.9984875E2,1.1972827E2,2.297742E2,0E0,1.7428867E1,5.356064E1,1.7562012E1,9.778484E0,1.9626789E0,9.724788E0,4.986511E0,5.7632084E0,2.8184555E1,1.3400882E1,2.1101257E1,5.752205E1,1.3731085E2,1.172191E2,8.633011E0,1.6363935E1,1.0781429E1,1.8575562E1,1.634636E1,9.628662E0,3.431656E1,1.8922516E0,0E0,0E0,0E0,0E0,0E0,0E0,0E0,0E0,0E0,0E0,0E0,0E0,0E0,0E0,0E0,0E0,0E0,0E0,0E0,0E0,0E0,0E0,0E0,0E0,0E0,0E0,0E0,0E0,0E0,0E0,0E0,0E0,0E0,0E0,0E0,0E0,0E0,0E0,0E0,0E0,0E0,0E0,0E0,0E0,0E0,0E0,0E0,0E0,0E0,0E0,0E0,0E0,0E0,0E0,0E0,0E0,0E0,0E0,0E0,0E0,0E0],"parents":[2147483647,0,0,1,1,2,2,3,3,4,4,5,5,6,6,7,7,8,8,9,9,10,10,11,11,12,12,13,13,14,14,15,15,16,16,17,17,18,18,19,19,20,20,21,21,22,22,23,23,24,24,25,25,26,26,27,27,28,28,29,29,30,30,31,31,32,32,33,33,34,34,35,35,36,36,37,37,38,38,40,40,41,41,42,42,43,43,44,44,45,45,46,46,47,47,48,48,49,49,50,50,51,51,52,52,53,53,54,54,55,55,56,56,57,57,58,58,59,59,60,60,61,61],"right_children":[2,4,6,8,10,12,14,16,18,20,22,24,26,28,30,32,34,36,38,40,42,44,46,48,50,52,54,56,58,60,62,64,66,68,70,72,74,76,78,-1,80,82,84,86,88,90,92,94,96,98,100,102,104,106,108,110,112,114,116,118,120,122,-1,-1,-1,-1,-1,-1,-1,-1,-1,-1,-1,-1,-1,-1,-1,-1,-1,-1,-1,-1,-1,-1,-1,-1,-1,-1,-1,-1,-1,-1,-1,-1,-1,-1,-1,-1,-1,-1,-1,-1,-1,-1,-1,-1,-1,-1,-1,-1,-1,-1,-1,-1,-1,-1,-1,-1,-1,-1,-1,-1,-1],"split_conditions":[4.2E1,9E-1,7.2E1,7.7E0,3.9E1,-2.9136143E1,2.5645006E0,5.324123E0,2.6338621E1,5.946474E0,-1.17039E2,-2.976382E1,1.46E1,-7.391451E1,1.41E1,3.18E4,6.6E1,1E0,3.8885265E1,4.071153E1,6.5E1,4.7E1,3E1,4.058326E1,-1.3E0,9E0,3.843237E1,-1.829036E1,4.10883E1,-7.329274E1,8.7E1,-2.1805908E1,1E0,5.946474E0,6.1E0,2.73E4,4.8E1,3.4286724E1,4.52E4,9.81609E-2,5.976403E1,-7.38719E1,5.4E0,1.2E0,2.7E0,-7.395405E1,7.5E1,-3.019507E1,8.9E0,4.072442E1,6.3E1,6.400837E1,-1.5593786E1,2.708054E1,4.05E4,4.070799E1,2.3E4,4.3E1,-1.3382136E1,-7.376162E1,7.6E1,5E0,8.812964E-2,-5.674934E-2,8.459433E-2,1.5504506E-2,-6.1759807E-2,3.432518E-2,-2.3475045E-2,-1.23950215E-2,-7.969142E-2,-1.9213552E-2,3.463131E-2,-2.598463E-2,9.633387E-3,6.269837E-2,9.780638E-2,-6.5795295E-2,7.958857E-3,-4.7898717E-2,7.400321E-2,-3.1196658E-2,-6.214671E-3,-1.1003526E-2,-6.733664E-2,-6.0000002E-2,5.7029914E-2,-1.0633447E-2,-8.0000006E-2,-7.1428575E-2,3.810131E-2,-8.921303E-2,-6.6236034E-2,2.6638592E-2,8.767953E-2,-6.487353E-2,-2.3216452E-2,4.561232E-2,-6.5190546E-2,9.955449E-2,7.3864195E-3,-8.564791E-3,-3.397668E-2,-2.2801233E-2,-6.360425E-2,-1.750629E-2,9.180803E-2,3.1584512E-2,-6.7836724E-2,-5.8103155E-2,-9.575385E-3,-4.2310234E-2,1.55366855E-2,1.8489333E-2,-4.6672683E-2,6.947569E-2,-2.1261664E-2,-9.247761E-2,-8.0713294E-2,5.736818E-3,-6.743342E-2,9.570079E-3,-6.0000002E-2],"split_indices":[12,19,14,16,6,9,9,9,9,9,1,9,10,1,10,4,14,18,9,0,20,3,3,0,19,6,9,9,0,1,18,9,18,9,10,4,6,9,4,0,0,1,13,19,13,1,14,9,10,0,3,9,9,9,4,0,4,3,9,1,3,6,0,0,0,0,0,0,0,0,0,0,0,0,0,0,0,0,0,0,0,0,0,0,0,0,0,0,0,0,0,0,0,0,0,0,0,0,0,0,0,0,0,0,0,0,0,0,0,0,0,0,0,0,0,0,0,0,0,0,0,0,0],"split_type":[0,0,0,0,0,0,0,0,0,0,0,0,0,0,0,0,0,0,0,0,0,0,0,0,0,0,0,0,0,0,0,0,0,0,0,0,0,0,0,0,0,0,0,0,0,0,0,0,0,0,0,0,0,0,0,0,0,0,0,0,0,0,0,0,0,0,0,0,0,0,0,0,0,0,0,0,0,0,0,0,0,0,0,0,0,0,0,0,0,0,0,0,0,0,0,0,0,0,0,0,0,0,0,0,0,0,0,0,0,0,0,0,0,0,0,0,0,0,0,0,0,0,0],"sum_hessian":[1.7297525E4,1.202467E4,5.2728564E3,1.0674111E4,1.3505588E3,3.348761E3,1.9240956E3,2.5212495E3,8.1528613E3,1.0675159E3,2.8304297E2,1.0425896E3,2.3061714E3,7.7525336E2,1.1488422E3,2.1285176E3,3.9273175E2,6.5734243E3,1.5794371E3,6.806756E1,9.9944836E2,1.3193258E1,2.6984973E2,8.0301263E2,2.3957698E2,2.1801758E3,1.25995514E2,1.7441728E2,6.008361E2,1.134494E3,1.4348175E1,1.906134E3,2.2238358E2,1.64109E2,2.2862276E2,2.7891494E3,3.784275E3,1.1576808E3,4.2175632E2,5.3374302E1,1.4693258E1,8.63617E2,1.3583133E2,7.481601E0,5.7116575E0,6.346629E0,2.6350308E2,1.702149E1,7.8599115E2,9.558287E0,2.3001869E2,1.3487124E3,8.314635E2,1.08687225E2,1.7308287E1,9.74295E1,7.6987785E1,5.826996E2,1.8136517E1,1.0675675E3,6.692641E1,2.7116573E0,1.1636518E1,5.0674862E1,1.8554592E3,1.7238203E2,5.0001545E1,4.8486237E1,1.1562276E2,6.3504635E1,1.6511812E2,6.5915985E2,2.1299895E3,3.0521501E3,7.3212476E2,3.609145E2,7.9676636E2,2.0165955E2,2.2009677E2,1.1846629E1,2.8466294E0,3.976382E2,4.659788E2,1.6116573E1,1.19714745E2,1.5E0,5.981601E0,1.7116573E0,4E0,2.5E0,3.8466294E0,2.1938652E2,4.4116573E1,9.904916E0,7.1165733E0,4.2366573E1,7.436246E2,3.5966294E0,5.9616575E0,2.234604E2,6.5582867E0,1.0679469E3,2.8076544E2,4.4647107E2,3.8499243E2,3.6444805E1,7.224242E1,1.9233147E0,1.5384972E1,2.1769943E1,7.565955E1,8.134972E0,6.885281E1,1.0654916E1,5.720447E2,8.828231E0,9.308287E0,7.3129297E2,3.3627457E2,2.552149E1,4.1404915E1,1.2116573E0,1.5E0],"tree_param":{"num_deleted":"0","num_feature":"21","num_nodes":"123","size_leaf_vector":"1"}},{"base_weights":[1.5183472E-3,2.7376905E-1,-6.222179E-1,8.2153946E-1,9.6055314E-2,-3.6873266E-1,-1.4364429E0,1.229641E0,-8.994428E-1,3.349961E-1,-6.920551E-1,-2.1060017E-1,-7.715832E-1,-7.788267E-1,-1.6724858E0,1.3654916E0,-8.538933E-1,-2.0173173E-1,-1.344245E0,4.8474613E-1,-6.1142135E-1,-5.599016E-1,-1.5517832E0,-2.7550307E-1,1.4636364E0,-4.4488707E-1,-1.4733821E0,-9.1720706E-1,3.6686588E-2,-1.791124E0,-1.3280071E0,1.4773488E0,-1.2983568E-1,-1.2545496E0,-2.7012935E-1,-4.0686595E-1,1.3718077E0,-1.4806396E0,-1.6695872E-1,2.7592808E-1,1.8663462E0,-3.671665E-1,-1.4704275E0,-2.7929395E-1,-7.272307E-1,-1.6046337E0,8.356987E-1,-6.2745565E-1,-1.3745621E-1,-6.0929453E-1,1.7004743E0,-8.4409463E-1,-5.2634913E-2,-1.5056897E0,3.5475305E-1,-1.2403191E0,-7.423739E-1,5.153699E-1,-7.064823E-1,-1.7984989E0,-8.112076E-1,-2.2358342E-1,-1.3752152E0,1.5219272E-3,7.9663105E-2,2.8778842E-2,-4.1150253E-2,-8.6033165E-2,-4.7819424E-2,-3.315814E-2,3.886435E-2,-4.7644224E-2,-3.667061E-3,-7.815381E-2,9.5067665E-2,6.946606E-2,-7.637613E-2,-4.8752595E-2,3.2305416E-2,3.7633173E-2,-2.8268283E-3,9.455807E-2,-5.099637E-2,2.490428E-3,-3.7858207E-2,-1.6415637E-2,-8.149541E-2,-4.1938154E-3,-5.8845736E-2,-4.409584E-2,-1.783575E-2,-4.5917276E-2,-8.322573E-2,6.377552E-2,5.8704666E-3,-1.7458206E-2,-4.784089E-2,-2.889711E-2,3.6414352E-3,3.470776E-2,-8.444508E-2,-5.800569E-2,8.7870084E-2,-3.3609793E-2,-5.1584225E-2,-5.9466385E-3,5.3042144E-2,-8.466492E-2,-6.437625E-2,4.8137907E-2,-2.775473E-2,-6.5156996E-2,1.553604E-2,6.4178415E-2,-4.2223837E-2,3.222176E-2,-5.9366204E-2,-7.240208E-2,-2.492572E-3,-9.32699E-2,-8.274819E-2,-4.3215603E-3,-7.005458E-2,-4.9010005E-2,6.4691745E-2,-7.952714E-2,-5.534448E-2],"categories":[],"categories_nodes":[],"categories_segments":[],"categories_sizes":[],"default_left":[0,0,0,0,0,0,0,0,0,0,0,0,0,0,0,0,0,0,0,0,0,0,0,0,0,0,0,0,0,0,0,0,0,0,0,0,0,0,0,0,0,0,0,0,0,0,0,0,0,0,0,0,0,0,0,0,0,0,0,0,0,0,0,0,0,0,0,0,0,0,0,0,0,0,0,0,0,0,0,0,0,0,0,0,0,0,0,0,0,0,0,0,0,0,0,0,0,0,0,0,0,0,0,0,0,0,0,0,0,0,0,0,0,0,0,0,0,0,0,0,0,0,0,0,0,0,0],"id":1,"left_children":[1,3,5,7,9,11,13,15,17,19,21,23,25,27,29,31,33,35,37,39,41,43,45,47,49,51,53,55,57,59,61,63,65,67,69,71,73,75,77,79,81,83,85,87,89,91,93,95,97,99,101,103,105,107,109,111,113,115,117,119,121,123,125,-1,-1,-1,-1,-1,-1,-1,-1,-1,-1,-1,-1,-1,-1,-1,-1,-1,-1,-1,-1,-1,-1,-1,-1,-1,-1,-1,-1,-1,-1,-1,-1,-1,-1,-1,-1,-1,-1,-1,-1,-1,-1,-1,-1,-1,-1,-1,-1,-1,-1,-1,-1,-1,-1,-1,-1,-1,-1,-1,-1,-1,-1,-1,-1],"loss_changes":[2.9458582E3,1.1755237E3,1.0874138E3,2.0786924E3,1.7175193E3,2.5599707E2,1.9289868E2,6.780869E2,1.7587564E2,9.9216016E2,2.4021631E2,3.143294E2,2.5913885E2,3.753665E1,3.5210693E1,3.757837E2,3.4043404E1,7.226485E1,5.5382202E1,1.7428917E3,2.0015335E2,8.6228455E1,3.694275E1,1.3508089E2,5.4045135E1,1.21252975E2,2.1766968E1,1.5131165E1,1.7856432E1,3.4645996E0,1.2178864E1,3.5036475E2,7.7341576E1,1.0431305E1,2.5670193E1,3.58605E1,4.314553E1,4.3879395E1,2.5003603E1,8.322647E2,5.874414E1,1.21365364E2,3.7976624E1,1.208042E2,6.574054E1,9.829529E0,1.9883728E0,7.147995E1,1.8525339E2,1.7787975E1,1.7861694E1,1.168396E1,2.9047771E1,1.2286133E1,4.4356227E0,9.98082E0,3.973976E1,7.4646626E0,9.513325E0,3.3979492E0,2.8334475E0,1.391033E1,1.1498077E1,0E0,0E0,0E0,0E0,0E0,0E0,0E0,0E0,0E0,0E0,0E0,0E0,0E0,0E0,0E0,0E0,0E0,0E0,0E0,0E0,0E0,0E0,0E0,0E0,0E0,0E0,0E0,0E0,0E0,0E0,0E0,0E0,0E0,0E0,0E0,0E0,0E0,0E0,0E0,0E0,0E0,0E0,0E0,0E0,0E0,0E0,0E0,0E0,0E0,0E0,0E0,0E0,0E0,0E0,0E0,0E0,0E0,0E0,0E0,0E0,0E0,0E0,0E0,0E0],"parents":[2147483647,0,0,1,1,2,2,3,3,4,4,5,5,6,6,7,7,8,8,9,9,10,10,11,11,12,12,13,13,14,14,15,15,16,16,17,17,18,18,19,19,20,20,21,21,22,22,23,23,24,24,25,25,26,26,27,27,28,28,29,29,30,30,31,31,32,32,33,33,34,34,35,35,36,36,37,37,38,38,39,39,40,40,41,41,42,42,43,43,44,44,45,45,46,46,47,47,48,48,49,49,50,50,51,51,52,52,53,53,54,54,55,55,56,56,57,57,58,58,59,59,60,60,61,61,62,62],"right_children":[2,4,6,8,10,12,14,16,18,20,22,24,26,28,30,32,34,36,38,40,42,44,46,48,50,52,54,56,58,60,62,64,66,68,70,72,74,76,78,80,82,84,86,88,90,92,94,96,98,100,102,104,106,108,110,112,114,116,118,120,122,124,126,-1,-1,-1,-1,-1,-1,-1,-1,-1,-1,-1,-1,-1,-1,-1,-1,-1,-1,-1,-1,-1,-1,-1,-1,-1,-1,-1,-1,-1,-1,-1,-1,-1,-1,-1,-1,-1,-1,-1,-1,-1,-1,-1,-1,-1,-1,-1,-1,-1,-1,-1,-1,-1,-1,-1,-1,-1,-1,-1,-1,-1,-1,-1,-1],"split_conditions":[4.2E1,7E0,7.6E1,3E0,6.5E1,4.424983E1,2.24445E0,6.671997E0,-1.7987228E1,3.843237E1,1.8E1,1.46E1,5.8E1,4.084385E1,-7.367732E1,5.82826E1,4.10883E1,7.1E1,-7.341673E1,3.4286724E1,1E0,-7.393479E1,1.2145389E2,2.8E1,2.6338621E1,-7.385265E1,4.7E1,4.06935E1,9.9E1,4.115351E1,7.5E0,-2.1805908E1,3.1E0,-7.383784E1,5.1E0,-2.4398376E1,-3.2480656E1,2.76E4,4.38E4,9.6E0,-7.327756E1,4.8E1,-7.422363E1,5.403429E0,-1.4830608E1,6E0,3E0,-7.387125E1,-3.019507E1,1.49E1,1.7E1,2.9E1,-7.332204E1,-7.381518E1,4.105757E1,9.5E1,4.070314E1,8.6E1,9E1,-7.38502E1,8E1,1E0,1.13E1,1.5219272E-3,7.9663105E-2,2.8778842E-2,-4.1150253E-2,-8.6033165E-2,-4.7819424E-2,-3.315814E-2,3.886435E-2,-4.7644224E-2,-3.667061E-3,-7.815381E-2,9.5067665E-2,6.946606E-2,-7.637613E-2,-4.8752595E-2,3.2305416E-2,3.7633173E-2,-2.8268283E-3,9.455807E-2,-5.099637E-2,2.490428E-3,-3.7858207E-2,-1.6415637E-2,-8.149541E-2,-4.1938154E-3,-5.8845736E-2,-4.409584E-2,-1.783575E-2,-4.5917276E-2,-8.322573E-2,6.377552E-2,5.8704666E-3,-1.7458206E-2,-4.784089E-2,-2.889711E-2,3.6414352E-3,3.470776E-2,-8.444508E-2,-5.800569E-2,8.7870084E-2,-3.3609793E-2,-5.1584225E-2,-5.9466385E-3,5.3042144E-2,-8.466492E-2,-6.437625E-2,4.8137907E-2,-2.775473E-2,-6.5156996E-2,1.553604E-2,6.4178415E-2,-4.2223837E-2,3.222176E-2,-5.9366204E-2,-7.240208E-2,-2.492572E-3,-9.32699E-2,-8.274819E-2,-4.3215603E-3,-7.005458E-2,-4.9010005E-2,6.4691745E-2,-7.952714E-2,-5.534448E-2],"split_indices":[12,2,11,18,11,9,9,9,9,9,6,2,11,0,1,0,0,6,1,9,7,1,1,5,9,1,20,0,15,0,2,9,2,1,13,9,9,4,4,10,1,11,1,9,9,10,15,1,9,2,15,3,1,1,0,3,0,11,5,1,3,7,2,0,0,0,0,0,0,0,0,0,0,0,0,0,0,0,0,0,0,0,0,0,0,0,0,0,0,0,0,0,0,0,0,0,0,0,0,0,0,0,0,0,0,0,0,0,0,0,0,0,0,0,0,0,0,0,0,0,0,0,0,0,0,0,0],"split_type":[0,0,0,0,0,0,0,0,0,0,0,0,0,0,0,0,0,0,0,0,0,0,0,0,0,0,0,0,0,0,0,0,0,0,0,0,0,0,0,0,0,0,0,0,0,0,0,0,0,0,0,0,0,0,0,0,0,0,0,0,0,0,0,0,0,0,0,0,0,0,0,0,0,0,0,0,0,0,0,0,0,0,0,0,0,0,0,0,0,0,0,0,0,0,0,0,0,0,0,0,0,0,0,0,0,0,0,0,0,0,0,0,0,0,0,0,0,0,0,0,0,0,0,0,0,0,0],"sum_hessian":[1.7345695E4,1.2075498E4,5.2701973E3,2.957112E3,9.118387E3,4.0201067E3,1.2500903E3,2.3905254E3,5.665866E2,6.9974585E3,2.1209277E3,2.887994E3,1.1321127E3,3.313232E2,9.1876715E2,2.2445225E3,1.4600287E2,2.2114882E2,3.4543774E2,6.0419404E3,9.555181E2,1.8397767E3,2.8115094E2,2.7810212E3,1.06972694E2,7.7361786E2,3.584948E2,2.831519E2,4.8171326E1,6.802799E2,2.3848723E2,2.088319E3,1.5620354E2,8.589871E1,6.010416E1,1.9629968E2,2.4849144E1,3.093413E2,3.609644E1,5.2496904E3,7.9225E2,7.4508405E2,2.1043411E2,6.882554E2,1.1515214E3,2.753828E2,5.768116E0,7.824945E2,1.9985269E3,1.0807458E1,9.616523E1,3.8283878E2,3.907791E2,3.5244263E2,6.052164E0,9.727747E1,1.8587442E2,2.948575E1,1.8685575E1,6.7436926E2,5.9106684E0,1.0011294E1,2.2847592E2,1.5498248E2,1.9333365E3,7.750215E1,7.8701385E1,3.1649805E1,5.4248905E1,4.397122E1,1.613294E1,7.3733086E1,1.225666E2,3.499919E0,2.1349224E1,4.5118675E0,3.0482944E2,1.8003674E1,1.8092766E1,2.1563474E3,3.0933433E3,7.858384E2,6.411585E0,3.6050934E2,3.8457468E2,2.6158644E1,1.8427547E2,5.661044E2,1.2215102E2,8.113936E2,3.4012778E2,2.3410744E1,2.5197206E2,3.09641E0,2.671706E0,4.2524652E2,3.57248E2,6.45223E2,1.3533038E3,5.057899E0,5.7495594E0,1.4982755E0,9.466696E1,2.0216626E2,1.806725E2,3.6966217E2,2.1116959E1,1.8585611E2,1.6658652E2,3.5929945E0,2.4591694E0,9.364448E1,3.6329932E0,8.363003E0,1.7751141E2,2.798592E1,1.4998305E0,8.209265E0,1.047631E1,4.5179834E2,2.2257092E2,3.1665397E0,2.7441287E0,6.916578E0,3.0947168E0,1.2402217E2,1.0445376E2],"tree_param":{"num_deleted":"0","num_feature":"21","num_nodes":"127","size_leaf_vector":"1"}},{"base_weights":[-4.446129E-3,2.5863025E-1,-5.9354556E-1,5.852138E-1,-9.881811E-3,-2.8467578E-1,-1.2221355E0,8.8157564E-1,-4.893261E-1,2.8113073E-1,-6.751065E-1,4.0288907E-2,-4.373058E-1,-7.1255714E-1,-1.545022E0,1.0553725E0,-4.4765446E-1,1.1995147E0,-7.2990185E-1,-7.232079E-2,9.40207E-1,-5.4173297E-1,-1.3901607E0,-4.20575E-1,1.7956675E0,-4.9462867E-1,6.9863236E-1,-4.1551372E-1,-8.843873E-1,-1.5832871E0,-4.5953795E-2,-3.7340772E-1,1.1541424E0,1.870095E-1,-7.9970145E-1,-9.3198466E-1,1.7507131E0,-4.6472335E-1,-1.268283E0,8.1049037E-1,-2.1119076E-1,-1.6225873E-1,1.4378715E0,-4.2716733E-1,-1.1600195E0,-1.6267486E0,-9.292413E-1,-1.175245E0,-3.703417E-1,-7.220054E-1,1.8793933E0,-4.0099493E-1,-1.0119456E0,1.4467845E0,1.6403127E-2,-7.3983926E-1,-2.2238429E-1,-9.079378E-1,6.162545E-1,-1.6761084E0,-1.3712391E0,-4.596019E-1,6.921667E-2,-6.567048E-2,-5.462788E-3,6.0760535E-2,-2.513498E-2,-1.9992836E-2,6.615686E-2,-3.0003567E-3,-6.331643E-2,-2.3470031E-2,-8.062898E-2,6.2375623E-3,9.676698E-2,1.4374278E-2,-2.974552E-2,-6.941802E-2,-3.6228336E-2,6.5485395E-2,1.3393715E-4,-1.9615931E-2,5.3317156E-3,4.651525E-2,-1.96651E-2,8.5672475E-2,-1.1654431E-2,3.5314415E-2,-2.362164E-2,-4.1953586E-2,-7.7291906E-2,1.9174187E-2,-8.385482E-2,-5.7095032E-2,-1.4440256E-2,-7.702001E-2,-2.5986228E-2,5.2790303E-2,-1.9494519E-2,1.3663468E-2,-7.7088624E-2,3.613448E-2,9.454308E-2,-5.3893376E-2,-1.6307814E-2,1.5993757E-2,-6.2630616E-2,8.398662E-2,-5.1059045E-2,1.390332E-2,-5.324457E-2,-3.9346847E-3,-5.2860525E-2,-1.7942471E-2,2.1422153E-2,-4.9344048E-2,-2.526E-2,-2.4953496E-2,6.011334E-2,1.0501653E-2,-8.44876E-2,-7.466008E-2,-4.2123348E-2,7.7918574E-2,-5.1170498E-2],"categories":[],"categories_nodes":[],"categories_segments":[],"categories_sizes":[],"default_left":[0,0,0,0,0,0,0,0,0,0,0,0,0,0,1,0,0,0,0,0,0,0,0,0,0,0,0,0,1,0,0,0,0,0,0,0,0,0,0,0,0,0,0,0,0,0,0,0,0,0,0,0,0,0,0,0,0,0,0,0,0,0,0,0,0,0,0,0,0,0,0,0,0,0,0,0,0,0,0,0,0,0,0,0,0,0,0,0,0,0,0,0,0,0,0,0,0,0,0,0,0,0,0,0,0,0,0,0,0,0,0,0,0,0,0,0,0,0,0,0,0,0,0,0,0],"id":2,"left_children":[1,3,5,7,9,11,13,15,17,19,21,23,25,27,29,31,33,35,37,39,41,43,45,47,49,51,53,55,57,59,61,63,65,67,69,71,73,75,77,79,81,83,85,87,89,91,93,95,97,99,101,103,105,107,109,111,113,115,117,119,121,123,-1,-1,-1,-1,-1,-1,-1,-1,-1,-1,-1,-1,-1,-1,-1,-1,-1,-1,-1,-1,-1,-1,-1,-1,-1,-1,-1,-1,-1,-1,-1,-1,-1,-1,-1,-1,-1,-1,-1,-1,-1,-1,-1,-1,-1,-1,-1,-1,-1,-1,-1,-1,-1,-1,-1,-1,-1,-1,-1,-1,-1,-1,-1],"loss_changes":[2.6754102E3,1.0465024E3,1.034354E3,1.7151902E3,1.2682288E3,1.7732297E2,2.8775488E2,9.7558105E2,4.7408627E2,1.0617344E3,1.8938586E2,9.257037E2,1.587326E2,3.4482758E1,6.1521973E1,5.272593E2,1.0935768E2,1.7269727E2,1.4504688E2,3.639717E2,8.731377E2,1.18643555E2,3.2595825E1,3.392569E1,5.1514282E1,1.1178461E2,5.9829533E1,1.5626881E1,1.5815399E1,1.8310059E1,1.705836E1,5.9980564E1,3.539375E2,1.1734473E2,1.0850368E2,8.867088E0,3.459149E1,6.7255356E1,2.0934692E1,1.6273956E2,1.4769656E2,1.2549959E2,5.0520654E2,7.321881E1,3.1189362E1,2.142694E1,1.4436783E1,1.2629555E1,2.4144882E1,7.2590623E0,1.6920166E0,9.9078125E1,1.13967224E2,3.3863373E1,1.7936E1,1.9570473E1,1.4314924E1,1.3026733E1,5.348765E0,1.897998E1,1.9654907E1,2.6945236E1,0E0,0E0,0E0,0E0,0E0,0E0,0E0,0E0,0E0,0E0,0E0,0E0,0E0,0E0,0E0,0E0,0E0,0E0,0E0,0E0,0E0,0E0,0E0,0E0,0E0,0E0,0E0,0E0,0E0,0E0,0E0,0E0,0E0,0E0,0E0,0E0,0E0,0E0,0E0,0E0,0E0,0E0,0E0,0E0,0E0,0E0,0E0,0E0,0E0,0E0,0E0,0E0,0E0,0E0,0E0,0E0,0E0,0E0,0E0,0E0,0E0,0E0,0E0],"parents":[2147483647,0,0,1,1,2,2,3,3,4,4,5,5,6,6,7,7,8,8,9,9,10,10,11,11,12,12,13,13,14,14,15,15,16,16,17,17,18,18,19,19,20,20,21,21,22,22,23,23,24,24,25,25,26,26,27,27,28,28,29,29,30,30,31,31,32,32,33,33,34,34,35,35,36,36,37,37,38,38,39,39,40,40,41,41,42,42,43,43,44,44,45,45,46,46,47,47,48,48,49,49,50,50,51,51,52,52,53,53,54,54,55,55,56,56,57,57,58,58,59,59,60,60,61,61],"right_children":[2,4,6,8,10,12,14,16,18,20,22,24,26,28,30,32,34,36,38,40,42,44,46,48,50,52,54,56,58,60,62,64,66,68,70,72,74,76,78,80,82,84,86,88,90,92,94,96,98,100,102,104,106,108,110,112,114,116,118,120,122,124,-1,-1,-1,-1,-1,-1,-1,-1,-1,-1,-1,-1,-1,-1,-1,-1,-1,-1,-1,-1,-1,-1,-1,-1,-1,-1,-1,-1,-1,-1,-1,-1,-1,-1,-1,-1,-1,-1,-1,-1,-1,-1,-1,-1,-1,-1,-1,-1,-1,-1,-1,-1,-1,-1,-1,-1,-1,-1,-1,-1,-1,-1,-1],"split_conditions":[4.1E1,8.9E0,7.2E1,3E0,5.6E1,-2.9136143E1,2.24445E0,5.4785876E0,4.1E1,2.8E1,7.8E1,-2.966009E1,1.47E1,7.4E1,3.282E4,-3.019507E1,6.671997E0,-2.9847315E1,-9.859477E0,9.8E0,2.6338621E1,4.0965477E1,9.7E0,8.8E0,2.61E4,1E0,1.43E1,-1.7882168E1,4.55E4,5.016364E1,7.8E1,2.53E4,1E0,3.612E4,6.8E1,4.6E1,3.4E1,5.7E1,6.5E1,-2.2399128E1,1.577732E1,9.9E0,3.8885265E1,5E1,1.14E1,4.8E0,8.8E1,-3.2633526E1,7.6E0,7.1E1,-1.4E0,7.7E0,3.763551E1,4.424983E1,3.843237E1,-3.33604E1,7.6E1,1.2E1,7.6E1,6.4E0,8.1E1,6.7E1,6.921667E-2,-6.567048E-2,-5.462788E-3,6.0760535E-2,-2.513498E-2,-1.9992836E-2,6.615686E-2,-3.0003567E-3,-6.331643E-2,-2.3470031E-2,-8.062898E-2,6.2375623E-3,9.676698E-2,1.4374278E-2,-2.974552E-2,-6.941802E-2,-3.6228336E-2,6.5485395E-2,1.3393715E-4,-1.9615931E-2,5.3317156E-3,4.651525E-2,-1.96651E-2,8.5672475E-2,-1.1654431E-2,3.5314415E-2,-2.362164E-2,-4.1953586E-2,-7.7291906E-2,1.9174187E-2,-8.385482E-2,-5.7095032E-2,-1.4440256E-2,-7.702001E-2,-2.5986228E-2,5.2790303E-2,-1.9494519E-2,1.3663468E-2,-7.7088624E-2,3.613448E-2,9.454308E-2,-5.3893376E-2,-1.6307814E-2,1.5993757E-2,-6.2630616E-2,8.398662E-2,-5.1059045E-2,1.390332E-2,-5.324457E-2,-3.9346847E-3,-5.2860525E-2,-1.7942471E-2,2.1422153E-2,-4.9344048E-2,-2.526E-2,-2.4953496E-2,6.011334E-2,1.0501653E-2,-8.44876E-2,-7.466008E-2,-4.2123348E-2,7.7918574E-2,-5.1170498E-2],"split_indices":[12,2,11,18,11,9,9,9,14,15,3,9,10,17,4,9,9,9,9,10,9,9,13,10,4,7,13,9,4,9,7,4,8,4,3,3,15,3,3,9,9,2,9,17,2,13,11,9,2,3,19,2,9,9,9,9,11,7,5,2,11,3,0,0,0,0,0,0,0,0,0,0,0,0,0,0,0,0,0,0,0,0,0,0,0,0,0,0,0,0,0,0,0,0,0,0,0,0,0,0,0,0,0,0,0,0,0,0,0,0,0,0,0,0,0,0,0,0,0,0,0,0,0,0,0],"split_type":[0,0,0,0,0,0,0,0,0,0,0,0,0,0,0,0,0,0,0,0,0,0,0,0,0,0,0,0,0,0,0,0,0,0,0,0,0,0,0,0,0,0,0,0,0,0,0,0,0,0,0,0,0,0,0,0,0,0,0,0,0,0,0,0,0,0,0,0,0,0,0,0,0,0,0,0,0,0,0,0,0,0,0,0,0,0,0,0,0,0,0,0,0,0,0,0,0,0,0,0,0,0,0,0,0,0,0,0,0,0,0,0,0,0,0,0,0,0,0,0,0,0,0,0,0],"sum_hessian":[1.7261154E4,1.1932828E4,5.328327E3,5.383658E3,6.5491694E3,3.5737493E3,1.7545779E3,4.2199585E3,1.1636998E3,4.5564565E3,1.9927129E3,1.1423364E3,2.4314128E3,6.8178845E2,1.0727894E3,3.732182E3,4.8777673E2,1.4460278E2,1.019097E3,2.9664756E3,1.5899807E3,1.6809381E3,3.117748E2,9.0539185E2,2.3694466E2,2.3151482E3,1.1626476E2,2.511107E2,4.3067776E2,1.0460322E3,2.6757149E1,2.411395E2,3.4910425E3,1.7420032E2,3.1357642E2,2.9568758E1,1.15034035E2,6.8403845E2,3.3505853E2,4.0255493E2,2.5639207E3,4.9471744E2,1.0952633E3,1.4195862E3,2.6135196E2,2.0435231E2,1.0742249E2,5.5106995E1,8.5028485E2,7.3806806E0,2.2956398E2,1.9618337E3,3.5331436E2,5.4918686E1,6.1346077E1,9.266537E1,1.5844533E2,4.2441214E2,6.2655993E0,7.2275256E2,3.2327972E2,2.1281164E1,5.4759836E0,5.202675E1,1.8911275E2,3.3672E3,1.23842415E2,1.1529355E2,5.890678E1,1.2173364E2,1.9184277E2,1.860981E1,1.0958948E1,1.190094E1,1.03133095E2,1.00743484E2,5.83295E2,2.7317545E2,6.1883068E1,2.4841579E2,1.5413914E2,1.6330273E3,9.3089343E2,8.582749E1,4.0888995E2,9.4018134E2,1.5508199E2,5.3954388E1,1.3656318E3,1.444032E2,1.1694876E2,4.8314204E0,1.9952089E2,8.005644E1,2.7366056E1,3.4525063E1,2.0581934E1,1.0780748E1,8.395041E2,3.634592E0,3.7460885E0,2.8821561E0,2.2668182E2,1.9398131E2,1.7678524E3,5.402381E1,2.9929056E2,5.047391E1,4.4447765E0,4.9991447E1,1.1354629E1,3.0459753E1,6.2205616E1,1.3135211E2,2.7093222E1,3.5364212E2,7.0770035E1,2.2092395E0,4.05636E0,5.087209E0,7.1766534E2,2.612077E2,6.207201E1,4.262145E0,1.701902E1],"tree_param":{"num_deleted":"0","num_feature":"21","num_nodes":"125","size_leaf_vector":"1"}},{"base_weights":[5.7350174E-3,2.4940686E-1,-5.511667E-1,3.3834526E-1,-6.86258E-1,-3.0508438E-1,-1.2497171E0,2.3156127E-1,1.6773183E0,-4.5334786E-1,-1.4707843E0,-1.5508492E0,-2.6097554E-1,-7.944908E-1,-1.4418931E0,3.8792652E-1,-3.3824316E-1,1.7306826E0,-1.2905792E0,-6.284276E-1,2.0505147E-1,-2.2284505E-1,-1.5813437E0,-9.206635E-1,-1.6654639E0,-1.4052841E-1,-5.884689E-1,-9.090335E-1,-8.3893664E-2,-1.4826111E0,4.6247092E-1,-2.1886858E-1,5.72171E-1,2.6540121E-2,-9.217464E-1,-1.660003E-1,1.7502799E0,1.8262345E-2,-1.6023238E0,-5.0763893E-1,-1.094164E0,-2.4214734E-1,4.2550814E-1,-1.1172252E0,4.2746654E-1,-1.5927404E0,1.2862158E-2,-1.6368954E-2,-1.0539373E0,-8.565268E-2,1.7263273E-2,-2.0294988E-1,1.4143338E0,-3.5414776E-1,-1.151324E0,-1.0128852E0,-4.4731236E-1,1.0937701E-1,-1.3089917E0,8.6453535E-2,-1.5061057E0,1.2522328E0,-1.2163501E0,2.9062063E-2,-1.7959138E-2,3.9206352E-2,7.18585E-4,3.6763743E-2,-1.1151207E-2,-7.5587235E-2,-3.5225447E-2,-5.060674E-2,3.450096E-2,8.781185E-2,1.3917714E-2,1.0808082E-2,-9.062502E-2,-3.383939E-2,-1.0621828E-2,-6.1838575E-2,-3.2597665E-2,-4.2122E-2,3.2060926E-3,-2.7517814E-2,2.6511118E-2,7.798729E-3,-6.686997E-2,-1.4534234E-3,3.371371E-2,-8.1702165E-2,-6.3877486E-2,-9.964107E-3,1.0767093E-2,-5.7855934E-2,1.4627022E-2,-1.7111111E-2,7.5036483E-3,8.603698E-2,4.351006E-2,-3.6945682E-2,2.3297414E-3,-6.022061E-2,1.394399E-2,-7.432324E-2,-4.644706E-2,-6.46097E-2,-1.2186806E-2,-4.4107508E-2,2.1240855E-2,1.4006182E-2,-8.1723034E-2,-4.6907898E-2,5.8030277E-2,-8.20426E-2,-6.706965E-2,-5.7315864E-2,8.307364E-2,-7.750893E-2,1.1836263E-2],"categories":[],"categories_nodes":[],"categories_segments":[],"categories_sizes":[],"default_left":[0,0,0,0,0,0,0,0,0,0,0,0,0,0,0,0,0,0,0,0,0,0,0,0,0,0,0,0,0,0,0,0,0,0,1,0,0,0,0,0,0,0,0,0,0,0,0,0,0,0,0,0,0,0,0,0,0,0,0,0,0,0,0,0,0,0,0,0,0,0,0,0,0,0,0,0,0,0,0,0,0,0,0,0,0,0,0,0,0,0,0,0,0,0,0,0,0,0,0,0,0,0,0,0,0,0,0,0,0,0,0,0,0,0,0,0,0,0,0],"id":3,"left_children":[1,3,5,7,9,11,13,15,17,19,21,23,25,27,29,31,33,35,37,39,41,43,45,47,49,51,53,55,57,59,61,63,65,67,69,71,73,-1,75,77,79,81,83,85,87,89,-1,91,93,-1,-1,95,97,99,101,103,105,107,109,111,113,115,117,-1,-1,-1,-1,-1,-1,-1,-1,-1,-1,-1,-1,-1,-1,-1,-1,-1,-1,-1,-1,-1,-1,-1,-1,-1,-1,-1,-1,-1,-1,-1,-1,-1,-1,-1,-1,-1,-1,-1,-1,-1,-1,-1,-1,-1,-1,-1,-1,-1,-1,-1,-1,-1,-1,-1,-1],"loss_changes":[2.3392573E3,9.9811676E2,9.0155664E2,1.5654243E3,1.8958905E2,2.1287164E2,1.1840161E2,9.038934E2,1.3031494E2,9.284361E1,3.2472168E1,8.038757E0,1.4783098E2,3.31214E1,7.509851E1,8.900183E2,4.650477E2,2.9834717E1,8.254242E0,3.520085E1,1.6834057E1,1.2415963E1,4.985718E0,2.7100754E0,1.1203003E1,2.6649777E2,1.3253317E2,1.6384491E1,1.3809828E1,3.4775146E1,2.9169237E1,2.0842671E2,7.2190784E2,2.3811095E2,1.0665381E2,7.247589E0,6.4101562E0,0E0,5.241375E0,2.5151016E1,7.393753E0,1.0473526E1,1.1944475E1,2.7085667E0,1.4402013E0,7.3968506E-1,0E0,2.0916288E-1,3.0764751E0,0E0,0E0,1.2974448E2,1.6173721E1,1.09994545E2,2.2798035E1,9.983917E0,1.1083147E1,1.6256361E1,4.565609E0,1.7388847E1,1.835083E1,1.630751E1,3.848916E0,0E0,0E0,0E0,0E0,0E0,0E0,0E0,0E0,0E0,0E0,0E0,0E0,0E0,0E0,0E0,0E0,0E0,0E0,0E0,0E0,0E0,0E0,0E0,0E0,0E0,0E0,0E0,0E0,0E0,0E0,0E0,0E0,0E0,0E0,0E0,0E0,0E0,0E0,0E0,0E0,0E0,0E0,0E0,0E0,0E0,0E0,0E0,0E0,0E0,0E0,0E0,0E0,0E0,0E0,0E0,0E0],"parents":[2147483647,0,0,1,1,2,2,3,3,4,4,5,5,6,6,7,7,8,8,9,9,10,10,11,11,12,12,13,13,14,14,15,15,16,16,17,17,18,18,19,19,20,20,21,21,22,22,23,23,24,24,25,25,26,26,27,27,28,28,29,29,30,30,31,31,32,32,33,33,34,34,35,35,36,36,38,38,39,39,40,40,41,41,42,42,43,43,44,44,45,45,47,47,48,48,51,51,52,52,53,53,54,54,55,55,56,56,57,57,58,58,59,59,60,60,61,61,62,62],"right_children":[2,4,6,8,10,12,14,16,18,20,22,24,26,28,30,32,34,36,38,40,42,44,46,48,50,52,54,56,58,60,62,64,66,68,70,72,74,-1,76,78,80,82,84,86,88,90,-1,92,94,-1,-1,96,98,100,102,104,106,108,110,112,114,116,118,-1,-1,-1,-1,-1,-1,-1,-1,-1,-1,-1,-1,-1,-1,-1,-1,-1,-1,-1,-1,-1,-1,-1,-1,-1,-1,-1,-1,-1,-1,-1,-1,-1,-1,-1,-1,-1,-1,-1,-1,-1,-1,-1,-1,-1,-1,-1,-1,-1,-1,-1,-1,-1,-1,-1,-1],"split_conditions":[4.2E1,3.8885265E1,7.6E1,3.4286724E1,2.5E1,2E4,2.24445E0,4E0,-7.327756E1,1.7E1,-1.17039E2,7.7E1,4.0965477E1,4.091386E1,1.33E1,-6E-1,6.8E1,9.4E0,2.9E1,3E0,6E-1,5.1E1,1.69E1,6.3E1,4.110968E1,2.4938145E1,1E0,1.2E1,8.4E1,7.6E0,1.25E1,7.1E0,5.207731E0,-2.9136143E1,1.9E4,2.2E0,1.62E1,1.8262345E-2,1.57E4,-7.374085E1,6.9E0,-7.388409E1,1.12E1,3.9141487E1,5.8E1,3.8E1,1.2862158E-2,4.058326E1,6.419293E1,-8.565268E-2,1.7263273E-2,9.8E1,-7.337706E1,-7.385265E1,4.7E1,9.2E0,7.7E1,7.2E1,7.2E1,7.8E1,-7.38194E1,-7.348858E1,5.5E1,2.9062063E-2,-1.7959138E-2,3.9206352E-2,7.18585E-4,3.6763743E-2,-1.1151207E-2,-7.5587235E-2,-3.5225447E-2,-5.060674E-2,3.450096E-2,8.781185E-2,1.3917714E-2,1.0808082E-2,-9.062502E-2,-3.383939E-2,-1.0621828E-2,-6.1838575E-2,-3.2597665E-2,-4.2122E-2,3.2060926E-3,-2.7517814E-2,2.6511118E-2,7.798729E-3,-6.686997E-2,-1.4534234E-3,3.371371E-2,-8.1702165E-2,-6.3877486E-2,-9.964107E-3,1.0767093E-2,-5.7855934E-2,1.4627022E-2,-1.7111111E-2,7.5036483E-3,8.603698E-2,4.351006E-2,-3.6945682E-2,2.3297414E-3,-6.022061E-2,1.394399E-2,-7.432324E-2,-4.644706E-2,-6.46097E-2,-1.2186806E-2,-4.4107508E-2,2.1240855E-2,1.4006182E-2,-8.1723034E-2,-4.6907898E-2,5.8030277E-2,-8.20426E-2,-6.706965E-2,-5.7315864E-2,8.307364E-2,-7.750893E-2,1.1836263E-2],"split_indices":[12,9,14,9,6,4,9,5,1,12,1,11,9,0,10,19,11,13,11,8,19,6,10,14,0,9,7,7,14,10,13,13,9,9,4,19,13,0,4,1,13,1,10,9,7,12,0,0,9,0,0,5,1,1,20,10,12,11,5,7,1,1,8,0,0,0,0,0,0,0,0,0,0,0,0,0,0,0,0,0,0,0,0,0,0,0,0,0,0,0,0,0,0,0,0,0,0,0,0,0,0,0,0,0,0,0,0,0,0,0,0,0,0,0,0,0,0,0,0],"split_type":[0,0,0,0,0,0,0,0,0,0,0,0,0,0,0,0,0,0,0,0,0,0,0,0,0,0,0,0,0,0,0,0,0,0,0,0,0,0,0,0,0,0,0,0,0,0,0,0,0,0,0,0,0,0,0,0,0,0,0,0,0,0,0,0,0,0,0,0,0,0,0,0,0,0,0,0,0,0,0,0,0,0,0,0,0,0,0,0,0,0,0,0,0,0,0,0,0,0,0,0,0,0,0,0,0,0,0,0,0,0,0,0,0,0,0,0,0,0,0],"sum_hessian":[1.7236273E4,1.1990425E4,5.2458477E3,1.0950206E4,1.040219E3,3.880336E3,1.3655115E3,1.0142508E4,8.076986E2,8.033101E2,2.3690883E2,1.3152475E2,3.7488113E3,4.068648E2,9.5864667E2,7.958784E3,2.1837234E3,7.938418E2,1.3856791E1,6.346036E2,1.6870654E2,1.9525888E1,2.1738295E2,2.1629887E1,1.0989486E2,2.7418347E3,1.0069764E3,3.5014493E2,5.6719883E1,9.3879535E2,1.9851297E1,1.8536714E3,6.105113E3,1.3442843E3,8.3943915E2,8.042009E0,7.857998E2,2.1682963E0,1.1688495E1,5.0557318E2,1.2903041E2,5.567361E1,1.1303293E2,7.9180837E0,1.1607805E1,2.1617665E2,1.206293E0,2.9225461E0,1.870734E1,1.07498634E2,2.396225E0,2.6368455E3,1.0498928E2,7.121371E2,2.948393E2,2.8487607E2,6.526886E1,4.9777702E1,6.942179E0,1.3810273E1,9.249851E2,1.3673174E1,6.1781235E0,2.7610468E2,1.5775668E3,4.423745E3,1.6813677E3,3.4957733E2,9.94707E2,2.2430014E2,6.15139E2,3.9526396E0,4.0893693E0,7.8244E2,3.3598163E0,1.208019E0,1.0480475E1,3.2058667E2,1.8498651E2,9.620781E1,3.28226E1,1.8217115E1,3.7456497E1,1.0541122E1,1.02491806E2,1.2103842E0,6.7076993E0,4.3828344E0,7.224971E0,1.8743117E2,2.8745481E1,1.7114644E0,1.2110816E0,1.7506443E1,1.2008961E0,1.8908931E3,7.459525E2,6.57836E1,3.920568E1,3.628802E2,3.492569E2,2.84439E2,1.0400303E1,4.037697E1,2.4449908E2,1.1634774E1,5.3634087E1,1.1580377E1,3.8197327E1,1.2038172E0,5.738362E0,7.132927E0,6.6773458E0,5.0384418E2,4.2114093E2,1.7303762E0,1.1942798E1,4.969588E0,1.2085357E0],"tree_param":{"num_deleted":"0","num_feature":"21","num_nodes":"119","size_leaf_vector":"1"}},{"base_weights":[2.3950264E-3,2.3529465E-1,-5.299429E-1,7.237929E-1,7.779009E-2,-2.2011358E-1,-1.067308E0,1.0577859E0,-4.708205E-1,3.45924E-1,-4.8341557E-1,6.423278E-2,-3.479982E-1,-6.093095E-1,-1.3770784E0,1.2367245E0,-7.9291E-1,5.953825E-2,-1.2102418E0,-3.3609813E-1,5.2251E-1,-3.5947144E-1,-1.41026E0,-4.1288674E-1,1.7200418E0,-3.980173E-1,6.9597554E-1,-1.478368E-1,-7.468488E-1,-1.4090555E0,1.0331488E0,1.4025911E0,-2.0140705E-1,6.642635E-1,-8.887748E-1,-1.6968493E0,1.7000966E-1,-1.4629343E0,-7.358739E-1,-4.509136E-1,6.7264694E-1,6.987044E-1,-4.526592E-1,-1.9773829E-1,-6.768773E-1,-1.4558656E0,-4.4639012E-1,-3.681771E-1,-1.4146105E0,-4.2601845E-1,1.7971644E0,-2.3302284E-1,-6.698473E-1,9.691125E-1,-1.113235E0,-9.544406E-1,-2.6553271E-2,-7.8971153E-1,5.4134303E-1,-1.4229573E0,7.372149E-2,7.8714244E-2,-3.703208E-1,-5.3366013E-2,7.335819E-2,4.007015E-3,-5.2560676E-2,4.5978706E-2,-2.0308336E-2,-4.6987634E-2,5.8065336E-2,-4.652537E-2,-9.05915E-2,7.3922E-2,1.4985668E-3,-7.451576E-2,4.2056322E-2,9.505009E-3,-6.0147207E-2,-1.4568589E-2,-4.338671E-2,6.3852803E-3,8.06597E-2,2.4101295E-2,8.337047E-2,9.429511E-3,-3.3515017E-2,-2.2619488E-3,-2.7320087E-2,-2.978999E-2,-6.755027E-2,-3.4078106E-2,-7.53104E-2,5.1892716E-3,-6.0817935E-2,-7.98315E-3,-3.283828E-2,-7.4263595E-2,1.3806286E-2,1.5342633E-2,-6.972937E-2,1.1318621E-2,9.023533E-2,-6.379347E-3,-3.145102E-2,-5.5289675E-2,-2.3935454E-2,-1.2863594E-2,7.5929396E-2,-8.005473E-2,-2.8522406E-2,-7.410502E-2,-1.7635874E-2,2.0858538E-3,-4.8481222E-2,-4.4919692E-2,-2.0477626E-2,3.8788226E-2,-6.001706E-2,-2.2640094E-4,-7.245681E-2,1.8485079E-2,-5.7827663E-2],"categories":[],"categories_nodes":[],"categories_segments":[],"categories_sizes":[],"default_left":[0,0,0,0,0,0,0,0,0,0,0,0,0,0,0,1,0,0,0,0,0,0,0,0,0,0,0,0,0,1,0,0,0,0,0,0,0,0,0,0,0,0,0,0,0,0,0,0,0,0,0,0,0,0,0,0,0,0,0,0,0,0,0,0,0,0,0,0,0,0,0,0,0,0,0,0,0,0,0,0,0,0,0,0,0,0,0,0,0,0,0,0,0,0,0,0,0,0,0,0,0,0,0,0,0,0,0,0,0,0,0,0,0,0,0,0,0,0,0,0,0,0,0],"id":4,"left_children":[1,3,5,7,9,11,13,15,17,19,21,23,25,27,29,31,33,35,37,39,41,43,45,47,49,51,53,55,57,59,61,63,65,67,69,71,73,75,77,79,81,83,85,87,89,91,93,95,97,99,101,103,105,107,109,111,113,115,117,119,-1,-1,121,-1,-1,-1,-1,-1,-1,-1,-1,-1,-1,-1,-1,-1,-1,-1,-1,-1,-1,-1,-1,-1,-1,-1,-1,-1,-1,-1,-1,-1,-1,-1,-1,-1,-1,-1,-1,-1,-1,-1,-1,-1,-1,-1,-1,-1,-1,-1,-1,-1,-1,-1,-1,-1,-1,-1,-1,-1,-1,-1,-1],"loss_changes":[2.134592E3,9.214656E2,8.721802E2,1.1655763E3,1.3631976E3,1.2092845E2,2.710027E2,7.5680273E2,2.5054707E2,7.3844946E2,3.359627E2,8.162638E2,1.2004587E2,4.9070953E1,8.948755E1,4.9680273E2,2.8783974E1,7.264005E1,3.0907104E1,1.4639166E2,8.370232E2,1.3255792E2,1.45216675E1,3.540735E1,3.901758E1,9.80383E1,5.3080082E1,1.7501919E1,3.3374756E1,4.730127E1,1.2379368E1,2.9923486E2,5.179332E1,3.9346437E0,2.0926773E1,2.6639938E-1,6.440345E1,1.2172333E1,4.1206196E1,7.50952E1,6.606415E1,8.64996E2,1.0421474E2,9.109574E1,4.6860626E1,1.180188E1,7.3424377E0,4.6186554E1,4.4628983E0,6.692828E0,2.2368774E0,5.686795E1,6.833313E1,6.2361458E1,2.8649673E0,6.903633E0,1.0134197E1,2.3508667E1,9.018711E0,4.1685303E1,0E0,0E0,3.4134462E0,0E0,0E0,0E0,0E0,0E0,0E0,0E0,0E0,0E0,0E0,0E0,0E0,0E0,0E0,0E0,0E0,0E0,0E0,0E0,0E0,0E0,0E0,0E0,0E0,0E0,0E0,0E0,0E0,0E0,0E0,0E0,0E0,0E0,0E0,0E0,0E0,0E0,0E0,0E0,0E0,0E0,0E0,0E0,0E0,0E0,0E0,0E0,0E0,0E0,0E0,0E0,0E0,0E0,0E0,0E0,0E0,0E0,0E0,0E0,0E0],"parents":[2147483647,0,0,1,1,2,2,3,3,4,4,5,5,6,6,7,7,8,8,9,9,10,10,11,11,12,12,13,13,14,14,15,15,16,16,17,17,18,18,19,19,20,20,21,21,22,22,23,23,24,24,25,25,26,26,27,27,28,28,29,29,30,30,31,31,32,32,33,33,34,34,35,35,36,36,37,37,38,38,39,39,40,40,41,41,42,42,43,43,44,44,45,45,46,46,47,47,48,48,49,49,50,50,51,51,52,52,53,53,54,54,55,55,56,56,57,57,58,58,59,59,62,62],"right_children":[2,4,6,8,10,12,14,16,18,20,22,24,26,28,30,32,34,36,38,40,42,44,46,48,50,52,54,56,58,60,62,64,66,68,70,72,74,76,78,80,82,84,86,88,90,92,94,96,98,100,102,104,106,108,110,112,114,116,118,120,-1,-1,122,-1,-1,-1,-1,-1,-1,-1,-1,-1,-1,-1,-1,-1,-1,-1,-1,-1,-1,-1,-1,-1,-1,-1,-1,-1,-1,-1,-1,-1,-1,-1,-1,-1,-1,-1,-1,-1,-1,-1,-1,-1,-1,-1,-1,-1,-1,-1,-1,-1,-1,-1,-1,-1,-1,-1,-1,-1,-1,-1,-1],"split_conditions":[4.2E1,7E0,7.2E1,7.7E0,6E1,-2.9136143E1,2.5645006E0,5.946474E0,-1.3530368E1,-7E-1,6.8E1,-2.966009E1,1.47E1,-7.391451E1,1.41E1,3.18E4,1.4E0,-2.9368263E1,6.2E0,8.4E1,3.843237E1,7.1E1,1.28E1,4.107769E1,2.61E4,1.3E1,3.843237E1,2.23E4,4.10883E1,7E4,5.6E1,-2.1805908E1,1E0,8.7E1,6.9E0,6.9E0,-2.9070467E1,9.054337E0,2E0,-7.375336E1,3.3E1,3.4286724E1,3.7E1,5.207731E0,6.671997E0,6E0,1.3E1,-7.389438E1,4.119024E1,7.2E1,-9.8E1,6.400837E1,3.82E4,2.708054E1,1.1E1,4.071321E1,2.67E4,1.29E1,8.8E1,7.6E0,7.372149E-2,7.8714244E-2,8.7E1,-5.3366013E-2,7.335819E-2,4.007015E-3,-5.2560676E-2,4.5978706E-2,-2.0308336E-2,-4.6987634E-2,5.8065336E-2,-4.652537E-2,-9.05915E-2,7.3922E-2,1.4985668E-3,-7.451576E-2,4.2056322E-2,9.505009E-3,-6.0147207E-2,-1.4568589E-2,-4.338671E-2,6.3852803E-3,8.06597E-2,2.4101295E-2,8.337047E-2,9.429511E-3,-3.3515017E-2,-2.2619488E-3,-2.7320087E-2,-2.978999E-2,-6.755027E-2,-3.4078106E-2,-7.53104E-2,5.1892716E-3,-6.0817935E-2,-7.98315E-3,-3.283828E-2,-7.4263595E-2,1.3806286E-2,1.5342633E-2,-6.972937E-2,1.1318621E-2,9.023533E-2,-6.379347E-3,-3.145102E-2,-5.5289675E-2,-2.3935454E-2,-1.2863594E-2,7.5929396E-2,-8.005473E-2,-2.8522406E-2,-7.410502E-2,-1.7635874E-2,2.0858538E-3,-4.8481222E-2,-4.4919692E-2,-2.0477626E-2,3.8788226E-2,-6.001706E-2,-2.2640094E-4,-7.245681E-2,1.8485079E-2,-5.7827663E-2],"split_indices":[12,2,14,16,14,9,9,9,9,19,6,9,10,1,10,4,10,9,2,15,9,14,16,0,4,6,9,4,0,4,3,9,15,11,10,10,9,9,15,1,20,9,11,9,9,10,20,1,0,3,20,9,4,9,7,0,4,10,11,10,0,0,15,0,0,0,0,0,0,0,0,0,0,0,0,0,0,0,0,0,0,0,0,0,0,0,0,0,0,0,0,0,0,0,0,0,0,0,0,0,0,0,0,0,0,0,0,0,0,0,0,0,0,0,0,0,0,0,0,0,0,0,0],"split_type":[0,0,0,0,0,0,0,0,0,0,0,0,0,0,0,0,0,0,0,0,0,0,0,0,0,0,0,0,0,0,0,0,0,0,0,0,0,0,0,0,0,0,0,0,0,0,0,0,0,0,0,0,0,0,0,0,0,0,0,0,0,0,0,0,0,0,0,0,0,0,0,0,0,0,0,0,0,0,0,0,0,0,0,0,0,0,0,0,0,0,0,0,0,0,0,0,0,0,0,0,0,0,0,0,0,0,0,0,0,0,0,0,0,0,0,0,0,0,0,0,0,0,0],"sum_hessian":[1.721504E4,1.1976039E4,5.238999E3,2.9190503E3,9.056989E3,3.323927E3,1.9150721E3,2.2813416E3,6.377086E2,6.129032E3,2.927957E3,1.0313218E3,2.2926052E3,7.738682E2,1.1412039E3,2.0805142E3,2.0082735E2,3.7188742E2,2.658212E2,1.2603444E3,4.868688E3,2.5838184E3,3.4413846E2,8.012059E2,2.3011594E2,2.1883743E3,1.0423109E2,1.7816452E2,5.9570374E2,1.1266715E3,1.4532421E1,1.865394E3,2.1512018E2,1.2030533E1,1.8879681E2,2.1156687E1,3.507307E2,1.7207439E2,9.374681E1,1.1320475E3,1.282968E2,4.123867E3,7.448204E2,1.7127269E3,8.710915E2,3.2810376E2,1.6034687E1,7.682829E2,3.292301E1,7.8258324E0,2.222901E2,1.3629518E3,8.254224E2,9.096276E1,1.3268325E1,2.2389858E1,1.5577466E2,5.768953E2,1.8808388E1,1.1217698E3,4.901738E0,1.0400564E1,4.131857E0,4.7130238E1,1.8182639E3,1.6226593E2,5.285424E1,9.827488E0,2.2030451E0,1.847445E2,4.0523005E0,3.946451E0,1.7210236E1,3.2984726E1,3.17746E2,1.7040254E2,1.6718425E0,3.1630953E1,6.211586E1,8.199162E2,3.1213132E2,8.195111E1,4.634568E1,3.3712815E3,7.5258575E2,1.8876979E2,5.560506E2,1.1923456E3,5.203814E2,7.792543E2,9.183726E1,2.0917376E1,3.071864E2,9.856793E0,6.177894E0,4.4692154E2,3.2136133E2,3.1718897E1,1.204114E0,4.8438816E0,2.9819505E0,1.2104318E0,2.2107967E2,1.0774094E3,2.855423E2,2.5013399E2,5.7528845E2,2.830967E1,6.265309E1,5.960884E0,7.3074403E0,1.1149557E1,1.1240301E1,1.4615038E2,9.624282E0,4.475762E2,1.2931914E2,1.7065987E1,1.7424015E0,2.034969E1,1.10142E3,2.4013886E0,1.7304682E0],"tree_param":{"num_deleted":"0","num_feature":"21","num_nodes":"123","size_leaf_vector":"1"}},{"base_weights":[2.1643417E-3,2.2868833E-1,-5.051963E-1,-5.767062E-1,3.250186E-1,-2.912035E-1,-1.2081729E0,-4.4500405E-1,-9.9342597E-1,4.182158E-1,-5.9817183E-1,-1.5676022E-1,-6.2663996E-1,-6.36599E-1,-1.4155892E0,-2.2979291E-1,-7.6145387E-1,-1.0812162E0,-1.3610169E-2,3.1477365E-1,1.5627053E0,-2.6206884E-1,-1.0584458E0,-2.1847787E-1,9.786007E-1,-3.091642E-1,-1.1663363E0,-1.1044452E0,-4.39093E-1,1.1572909E-3,-1.4410064E0,1.048193E-2,-5.055414E-1,-8.5343146E-1,1.162483E0,-7.6908135E-1,-1.5461229E0,7.241234E-1,-1.4427146E0,6.3782054E-1,-1.0031152E-1,-5.751273E-1,1.6362737E0,-8.073178E-2,-8.489324E-1,-7.2806066E-1,-1.4087139E0,-4.829477E-1,-3.605789E-2,1.2715187E0,-2.7173802E-1,-6.9475436E-1,7.568896E-2,-1.2067741E0,9.5982455E-2,-7.1044546E-1,-1.4314088E0,1.2114822E0,-5.001305E-1,-1.0829453E0,6.950664E-2,-1.5296093E0,-1.1631123E0,2.6436988E-2,-6.2106564E-3,-3.8057428E-2,-4.997923E-3,-4.6460796E-2,4.7107656E-2,6.907751E-2,-5.0893653E-2,-1.4993719E-2,-6.422456E-2,-7.9608396E-2,2.6324047E-2,6.2489547E-2,-1.6156195E-3,-8.398583E-2,-1.2729731E-2,4.2170543E-2,-2.471346E-2,-1.3711259E-2,2.5437215E-2,-8.613912E-2,1.0330807E-2,8.209709E-2,-5.2263033E-2,-1.140624E-2,2.7874703E-2,-5.5122282E-2,-1.681899E-2,-4.339192E-2,2.0510115E-2,-7.227456E-2,3.3817068E-2,-1.0968328E-2,-3.847619E-2,2.4152903E-2,-1.3518117E-2,3.7323374E-2,7.391019E-2,3.3299454E-2,-6.5089546E-2,-4.0455125E-2,-1.4806035E-2,1.4015056E-2,-1.5081684E-2,4.0248297E-2,-6.0894813E-2,3.8737264E-2,-5.0156422E-2,-8.027138E-2,-2.1998703E-2,-4.1437577E-2,-7.749715E-2,-5.2247386E-2,8.662375E-2,-3.2472484E-2,3.5880965E-3,-7.924258E-2,1.1884551E-2,-7.702953E-2,-2.921072E-2,-6.5624095E-2,-3.300607E-2],"categories":[],"categories_nodes":[],"categories_segments":[],"categories_sizes":[],"default_left":[0,0,0,0,0,0,0,0,0,0,0,0,0,0,0,0,0,0,0,0,0,0,0,0,0,0,0,0,0,0,0,0,0,0,0,0,0,0,0,0,0,0,0,0,0,0,0,0,0,0,0,0,0,0,0,0,0,0,0,0,0,0,0,0,0,0,0,0,0,0,0,0,0,0,0,0,0,0,0,0,0,0,0,0,0,0,0,0,0,0,0,0,0,0,0,0,0,0,0,0,0,0,0,0,0,0,0,0,0,0,0,0,0,0,0,0,0,0,0,0,0,0,0,0,0],"id":5,"left_children":[1,3,5,7,9,11,13,15,17,19,21,23,25,27,29,31,33,35,37,39,41,43,45,47,49,51,53,55,57,59,61,63,65,67,69,71,73,75,77,79,81,83,85,87,89,91,93,95,97,99,101,103,105,107,109,111,113,115,117,119,-1,121,123,-1,-1,-1,-1,-1,-1,-1,-1,-1,-1,-1,-1,-1,-1,-1,-1,-1,-1,-1,-1,-1,-1,-1,-1,-1,-1,-1,-1,-1,-1,-1,-1,-1,-1,-1,-1,-1,-1,-1,-1,-1,-1,-1,-1,-1,-1,-1,-1,-1,-1,-1,-1,-1,-1,-1,-1,-1,-1,-1,-1,-1,-1],"loss_changes":[1.9713712E3,9.202084E2,7.961084E2,6.910446E1,9.115918E2,1.8300684E2,1.4554297E2,6.552327E1,2.6091736E1,1.1385895E3,1.5003796E2,2.03411E2,1.9863284E2,3.0074387E1,3.260974E1,3.8143276E1,7.0017044E1,3.922928E1,2.8424562E1,1.1834625E3,1.263363E2,5.9836384E1,4.639206E1,1.3271078E2,5.5168762E1,1.0876732E2,2.2054626E1,1.1544968E1,2.420161E1,2.7041702E1,2.0124023E1,2.1606314E1,2.7712143E1,5.161075E1,1.0109011E1,4.0396385E1,1.1421234E1,7.115782E0,2.1561909E0,1.1555359E3,4.093508E2,2.4816404E1,1.3435059E1,4.0684303E1,1.6881432E1,3.4233894E1,1.6147003E1,8.465341E1,1.9829399E2,1.2076752E1,2.9106016E1,1.6446E1,2.8461376E1,1.0299927E1,1.14209385E1,1.0479139E1,2.451851E0,1.1972367E1,1.9393864E1,7.062565E0,0E0,6.069824E0,1.5605011E1,0E0,0E0,0E0,0E0,0E0,0E0,0E0,0E0,0E0,0E0,0E0,0E0,0E0,0E0,0E0,0E0,0E0,0E0,0E0,0E0,0E0,0E0,0E0,0E0,0E0,0E0,0E0,0E0,0E0,0E0,0E0,0E0,0E0,0E0,0E0,0E0,0E0,0E0,0E0,0E0,0E0,0E0,0E0,0E0,0E0,0E0,0E0,0E0,0E0,0E0,0E0,0E0,0E0,0E0,0E0,0E0,0E0,0E0,0E0,0E0,0E0,0E0],"parents":[2147483647,0,0,1,1,2,2,3,3,4,4,5,5,6,6,7,7,8,8,9,9,10,10,11,11,12,12,13,13,14,14,15,15,16,16,17,17,18,18,19,19,20,20,21,21,22,22,23,23,24,24,25,25,26,26,27,27,28,28,29,29,30,30,31,31,32,32,33,33,34,34,35,35,36,36,37,37,38,38,39,39,40,40,41,41,42,42,43,43,44,44,45,45,46,46,47,47,48,48,49,49,50,50,51,51,52,52,53,53,54,54,55,55,56,56,57,57,58,58,59,59,61,61,62,62],"right_children":[2,4,6,8,10,12,14,16,18,20,22,24,26,28,30,32,34,36,38,40,42,44,46,48,50,52,54,56,58,60,62,64,66,68,70,72,74,76,78,80,82,84,86,88,90,92,94,96,98,100,102,104,106,108,110,112,114,116,118,120,-1,122,124,-1,-1,-1,-1,-1,-1,-1,-1,-1,-1,-1,-1,-1,-1,-1,-1,-1,-1,-1,-1,-1,-1,-1,-1,-1,-1,-1,-1,-1,-1,-1,-1,-1,-1,-1,-1,-1,-1,-1,-1,-1,-1,-1,-1,-1,-1,-1,-1,-1,-1,-1,-1,-1,-1,-1,-1,-1,-1,-1,-1,-1,-1],"split_conditions":[4.1E1,-2.976382E1,7.6E1,4.084807E1,3.8885265E1,4.424983E1,2.24445E0,-7.379716E1,-7.367732E1,3.4286724E1,2E0,2.4075754E1,1E0,4.06935E1,7.6E0,8E0,8.3E1,-7.385265E1,4.104137E1,9.1E0,9E0,6E1,1.1E1,6E1,3.843237E1,-7.385265E1,4.7E1,4.064751E1,4.070314E1,7.8E1,-7.367732E1,9.4E0,1.06E1,4.083041E1,7E0,4.107769E1,9.8E1,8.7E0,5.9E1,5.207731E0,1.7233288E1,1.28E1,5.976403E1,6.9E1,-7.389626E1,1.3E1,1.39E1,-7.389438E1,9.2E0,1E0,1.2E1,4.084551E1,6.400837E1,-9.3E1,1.16E1,7.7E1,-7.38027E1,1.16E1,4.084385E1,4.061895E1,6.950664E-2,4.115068E1,1.06E1,2.6436988E-2,-6.2106564E-3,-3.8057428E-2,-4.997923E-3,-4.6460796E-2,4.7107656E-2,6.907751E-2,-5.0893653E-2,-1.4993719E-2,-6.422456E-2,-7.9608396E-2,2.6324047E-2,6.2489547E-2,-1.6156195E-3,-8.398583E-2,-1.2729731E-2,4.2170543E-2,-2.471346E-2,-1.3711259E-2,2.5437215E-2,-8.613912E-2,1.0330807E-2,8.209709E-2,-5.2263033E-2,-1.140624E-2,2.7874703E-2,-5.5122282E-2,-1.681899E-2,-4.339192E-2,2.0510115E-2,-7.227456E-2,3.3817068E-2,-1.0968328E-2,-3.847619E-2,2.4152903E-2,-1.3518117E-2,3.7323374E-2,7.391019E-2,3.3299454E-2,-6.5089546E-2,-4.0455125E-2,-1.4806035E-2,1.4015056E-2,-1.5081684E-2,4.0248297E-2,-6.0894813E-2,3.8737264E-2,-5.0156422E-2,-8.027138E-2,-2.1998703E-2,-4.1437577E-2,-7.749715E-2,-5.2247386E-2,8.662375E-2,-3.2472484E-2,3.5880965E-3,-7.924258E-2,1.1884551E-2,-7.702953E-2,-2.921072E-2,-6.5624095E-2,-3.300607E-2],"split_indices":[12,9,11,0,9,9,9,1,1,9,8,9,7,0,10,18,11,1,0,2,15,14,15,5,9,1,20,0,0,7,1,10,16,0,5,0,20,10,5,9,9,2,0,18,1,12,16,1,2,7,6,0,9,20,16,12,1,2,0,9,0,0,16,0,0,0,0,0,0,0,0,0,0,0,0,0,0,0,0,0,0,0,0,0,0,0,0,0,0,0,0,0,0,0,0,0,0,0,0,0,0,0,0,0,0,0,0,0,0,0,0,0,0,0,0,0,0,0,0,0,0,0,0,0,0],"split_type":[0,0,0,0,0,0,0,0,0,0,0,0,0,0,0,0,0,0,0,0,0,0,0,0,0,0,0,0,0,0,0,0,0,0,0,0,0,0,0,0,0,0,0,0,0,0,0,0,0,0,0,0,0,0,0,0,0,0,0,0,0,0,0,0,0,0,0,0,0,0,0,0,0,0,0,0,0,0,0,0,0,0,0,0,0,0,0,0,0,0,0,0,0,0,0,0,0,0,0,0,0,0,0,0,0,0,0,0,0,0,0,0,0,0,0,0,0,0,0,0,0,0,0,0,0],"sum_hessian":[1.715089E4,1.1857402E4,5.2934883E3,1.2661808E3,1.0591222E4,4.0592332E3,1.234255E3,9.6368207E2,3.0249878E2,9.620562E3,9.706603E2,2.8988418E3,1.1603915E3,3.2972003E2,9.0453503E2,5.746205E2,3.890616E2,2.7752905E2,2.4969748E1,8.824274E3,7.962875E2,5.619098E2,4.087505E2,2.7501523E3,1.4868938E2,7.3160095E2,4.2879053E2,9.6512436E1,2.332076E2,1.5958693E1,8.885763E2,3.075752E2,2.6704526E2,3.718414E2,1.7220194E1,1.6763464E2,1.09894394E2,1.6793758E1,8.175987E0,4.9619883E3,3.862286E3,2.6263956E1,7.700235E2,4.3013757E2,1.3177219E2,2.1192966E2,1.9682085E2,1.121937E3,1.6282153E3,1.2045365E2,2.8235731E1,3.6504834E2,3.665526E2,4.155234E2,1.3267107E1,4.5208218E1,5.130422E1,7.6442327E0,2.2556335E2,9.086758E0,6.8719344E0,6.7034247E2,2.1823389E2,6.2844986E1,2.4473022E2,1.6327141E2,1.0377384E2,3.5724597E2,1.4595424E1,1.5980907E1,1.239286E0,8.8578445E1,7.9056206E1,1.077328E2,2.16159E0,9.523449E0,7.27031E0,6.4713464E0,1.7046412E0,4.199588E3,7.6240045E2,3.00482E3,8.5746564E2,1.0153753E1,1.6110203E1,7.687862E2,1.2373283E0,3.499598E2,8.017778E1,8.739495E1,4.437723E1,1.8896277E2,2.2966885E1,1.9371082E2,3.1100252E0,5.8533496E2,5.3660205E2,5.0602472E2,1.1221906E3,3.532574E1,8.5127914E1,1.496527E1,1.3270461E1,2.828757E2,8.217262E1,2.3783699E2,1.2871562E2,1.8921809E0,4.1363123E2,8.384391E0,4.882716E0,9.346211E0,3.5862007E1,9.745795E0,4.1558422E1,1.2452683E0,6.3989644E0,1.7875534E2,4.680802E1,6.439404E0,2.6473536E0,6.62023E2,8.319408E0,1.6702448E2,5.1209408E1],"tree_param":{"num_deleted":"0","num_feature":"21","num_nodes":"125","size_leaf_vector":"1"}},{"base_weights":[3.2466522E-3,2.2268789E-1,-4.9115917E-1,-5.253184E-1,3.1057197E-1,-2.2461022E-1,-1.0331122E0,-5.475167E-1,1.2571076E0,4.2032057E-1,-5.0300384E-1,-6.365127E-1,-1.4585629E-1,-5.918231E-1,-1.3085604E0,-3.0449298E-1,-7.313948E-1,-5.8560647E-2,1.5987719E0,-2.1198331E-1,5.360233E-1,-3.0216733E-1,-1.3089294E0,-1.4147992E0,-4.7308272E-1,-4.2606473E-2,-4.3690857E-1,-2.6505813E-1,-7.1612763E-1,6.900799E-2,-1.3251975E0,-1.991664E-1,-7.868937E-1,-8.8145256E-2,-6.982239E-1,1.935904E-2,8.935862E-2,-3.2034367E-1,4.4679806E-1,1.5325638E0,4.602569E-1,1.1365422E0,-3.7672794E-1,-1.3444752E0,7.699869E-1,9.3242717E-1,-1.5143288E0,-1.2673442E0,-2.5032404E-1,-1.07633226E-1,1.357894E0,-2.57836E-1,-1.0242773E0,-1.0962327E0,-1.516697E-1,-7.396004E-1,7.74662E-1,-1.340994E0,7.160062E-2,-2.9000653E-2,2.1595357E-3,-3.180654E-2,-8.074949E-2,-3.2090493E-2,-6.1904814E-2,-7.4974573E-3,-3.4753162E-2,8.668608E-2,-5.5520777E-3,8.703696E-2,-1.9903319E-2,4.4150405E-2,1.27138E-2,7.284226E-2,-5.782343E-2,-2.7874445E-3,-3.0365467E-2,-7.1791805E-2,-4.816098E-2,-7.3810417E-4,5.564422E-2,6.7533925E-2,8.6199446E-4,3.990679E-4,-7.8352846E-2,-2.3815854E-2,-7.124096E-2,-3.397317E-2,9.061759E-3,6.796766E-3,-1.3827494E-2,7.8882225E-2,2.7910689E-2,-2.1329762E-2,1.3105774E-2,-5.553015E-2,7.5244745E-5,1.9201757E-3,-6.980861E-2,3.7347604E-4,-3.63284E-2,-6.663629E-2,-3.489567E-2,-6.29324E-2,8.324135E-2,-6.8652235E-2,-2.7164772E-2],"categories":[],"categories_nodes":[],"categories_segments":[],"categories_sizes":[],"default_left":[0,0,0,0,0,0,0,0,0,0,0,0,0,0,0,0,0,0,0,0,0,0,0,0,0,0,0,0,1,0,1,0,0,0,0,0,0,1,0,0,0,0,0,0,0,0,0,0,0,0,1,0,0,0,0,0,0,0,0,0,0,0,0,0,0,0,0,0,0,0,0,0,0,0,0,0,0,0,0,0,0,0,0,0,0,0,0,0,0,0,0,0,0,0,0,0,0,0,0,0,0,0,0,0,0,0,0],"id":6,"left_children":[1,3,5,7,9,11,13,15,17,19,21,23,25,27,29,31,33,-1,35,37,39,41,43,45,47,49,51,53,55,-1,57,59,61,-1,63,-1,-1,65,67,69,71,73,75,77,79,81,83,85,87,89,91,93,95,97,99,101,103,105,-1,-1,-1,-1,-1,-1,-1,-1,-1,-1,-1,-1,-1,-1,-1,-1,-1,-1,-1,-1,-1,-1,-1,-1,-1,-1,-1,-1,-1,-1,-1,-1,-1,-1,-1,-1,-1,-1,-1,-1,-1,-1,-1,-1,-1,-1,-1,-1,-1],"loss_changes":[1.8500189E3,7.765315E2,7.5699524E2,4.9832764E1,9.439054E2,1.1393022E2,2.0925342E2,5.4629395E1,1.4800222E1,6.8146765E2,2.0301514E2,7.1054474E1,8.86958E1,2.6856537E1,4.938025E1,2.6793804E1,2.2653961E1,0E0,2.522606E0,1.03032234E2,5.937388E2,1.08483864E2,1.9538788E1,2.4156448E1,8.24021E1,1.9869704E2,8.1032684E1,1.7277157E1,1.7431885E1,0E0,4.7956665E1,4.0333206E1,1.079784E1,0E0,1.985379E1,0E0,0E0,7.896173E1,1.4664757E2,2.2409656E2,6.370281E2,3.831997E1,7.0901596E1,7.204895E0,1.3202224E0,1.7295446E0,7.5399323E0,1.2046768E1,6.797493E1,8.57952E1,1.6131943E1,5.220422E1,1.5962982E1,7.5603104E0,1.5012092E1,1.0810211E1,1.6496666E1,2.6137207E1,0E0,0E0,0E0,0E0,0E0,0E0,0E0,0E0,0E0,0E0,0E0,0E0,0E0,0E0,0E0,0E0,0E0,0E0,0E0,0E0,0E0,0E0,0E0,0E0,0E0,0E0,0E0,0E0,0E0,0E0,0E0,0E0,0E0,0E0,0E0,0E0,0E0,0E0,0E0,0E0,0E0,0E0,0E0,0E0,0E0,0E0,0E0,0E0,0E0],"parents":[2147483647,0,0,1,1,2,2,3,3,4,4,5,5,6,6,7,7,8,8,9,9,10,10,11,11,12,12,13,13,14,14,15,15,16,16,18,18,19,19,20,20,21,21,22,22,23,23,24,24,25,25,26,26,27,27,28,28,30,30,31,31,32,32,34,34,37,37,38,38,39,39,40,40,41,41,42,42,43,43,44,44,45,45,46,46,47,47,48,48,49,49,50,50,51,51,52,52,53,53,54,54,55,55,56,56,57,57],"right_children":[2,4,6,8,10,12,14,16,18,20,22,24,26,28,30,32,34,-1,36,38,40,42,44,46,48,50,52,54,56,-1,58,60,62,-1,64,-1,-1,66,68,70,72,74,76,78,80,82,84,86,88,90,92,94,96,98,100,102,104,106,-1,-1,-1,-1,-1,-1,-1,-1,-1,-1,-1,-1,-1,-1,-1,-1,-1,-1,-1,-1,-1,-1,-1,-1,-1,-1,-1,-1,-1,-1,-1,-1,-1,-1,-1,-1,-1,-1,-1,-1,-1,-1,-1,-1,-1,-1,-1,-1,-1],"split_conditions":[4.1E1,-2.976382E1,7.3E1,8.8E1,1E0,9.1E0,2.24445E0,1E0,7.9E1,-7E-1,4.5E1,-1.2E0,4.0965477E1,7.4E1,5.4E1,4.084807E1,4.052545E1,-5.8560647E-2,7.9E1,7.5E1,-2.9070467E1,1.1151746E1,4.3E0,-1.7E0,2.64E4,2.5752684E1,5.7E1,6.6E1,4.55E4,6.900799E-2,7E4,-3.2893818E1,5.03E4,-8.8145256E-2,4.107311E1,1.935904E-2,8.935862E-2,4.38E4,-2.9136143E1,6.3E1,7.7E0,3E0,5.6E1,4.091765E1,5.862139E1,4.054096E1,2.05E4,4.1E1,6.3E0,1.19E1,7.07E4,4.084493E1,4.7E1,1.35E1,1E2,-8.2E1,4.070616E1,4.110968E1,7.160062E-2,-2.9000653E-2,2.1595357E-3,-3.180654E-2,-8.074949E-2,-3.2090493E-2,-6.1904814E-2,-7.4974573E-3,-3.4753162E-2,8.668608E-2,-5.5520777E-3,8.703696E-2,-1.9903319E-2,4.4150405E-2,1.27138E-2,7.284226E-2,-5.782343E-2,-2.7874445E-3,-3.0365467E-2,-7.1791805E-2,-4.816098E-2,-7.3810417E-4,5.564422E-2,6.7533925E-2,8.6199446E-4,3.990679E-4,-7.8352846E-2,-2.3815854E-2,-7.124096E-2,-3.397317E-2,9.061759E-3,6.796766E-3,-1.3827494E-2,7.8882225E-2,2.7910689E-2,-2.1329762E-2,1.3105774E-2,-5.553015E-2,7.5244745E-5,1.9201757E-3,-6.980861E-2,3.7347604E-4,-3.63284E-2,-6.663629E-2,-3.489567E-2,-6.29324E-2,8.324135E-2,-6.8652235E-2,-2.7164772E-2],"split_indices":[12,9,14,3,19,13,9,15,14,19,6,19,9,17,11,0,0,0,17,15,9,9,19,19,4,9,6,17,4,0,4,9,4,0,0,0,0,4,9,17,16,6,11,0,0,0,4,5,13,16,4,0,20,16,15,20,0,0,0,0,0,0,0,0,0,0,0,0,0,0,0,0,0,0,0,0,0,0,0,0,0,0,0,0,0,0,0,0,0,0,0,0,0,0,0,0,0,0,0,0,0,0,0,0,0,0,0],"split_type":[0,0,0,0,0,0,0,0,0,0,0,0,0,0,0,0,0,0,0,0,0,0,0,0,0,0,0,0,0,0,0,0,0,0,0,0,0,0,0,0,0,0,0,0,0,0,0,0,0,0,0,0,0,0,0,0,0,0,0,0,0,0,0,0,0,0,0,0,0,0,0,0,0,0,0,0,0,0,0,0,0,0,0,0,0,0,0,0,0,0,0,0,0,0,0,0,0,0,0,0,0,0,0,0,0,0,0],"sum_hessian":[1.7049953E4,1.1809067E4,5.240886E3,1.2410618E3,1.0568006E4,3.5140059E3,1.7268804E3,1.2264801E3,1.4581757E1,9.312293E3,1.2557133E3,5.628868E2,2.9511191E3,6.648648E2,1.0620156E3,5.294219E2,6.970582E2,1.4991117E0,1.3082645E1,1.4403104E3,7.8719824E3,1.00631476E3,2.4939847E2,9.635724E1,4.665295E2,2.1792012E3,7.719179E2,1.8408481E2,4.8077997E2,6.0270567E0,1.0559885E3,4.357039E2,9.371799E1,2.0092707E1,6.769655E2,2.1716964E0,1.0910949E1,1.2373047E3,2.0300569E2,5.5485535E2,7.317127E3,4.8880527E1,9.5743427E2,2.4555324E2,3.8452244E0,3.57923E0,9.2778015E1,1.01157196E2,3.653723E2,2.0833901E3,9.581092E1,5.926685E2,1.7924937E2,2.1057613E1,1.6302719E2,4.738234E2,6.956567E0,1.0504838E3,5.504751E0,1.6889865E2,2.668052E2,8.077948E1,1.2938509E1,6.149002E2,6.2065304E1,8.515042E2,3.8580048E2,6.074966E1,1.4225603E2,5.0093863E2,5.3916683E1,2.39611E3,4.9210166E3,4.3209408E1,5.6711206E0,4.0077725E2,5.56657E2,1.9585422E2,4.9699024E1,1.4602566E0,2.3849678E0,2.129963E0,1.4492671E0,3.1343687E0,8.964365E1,1.7462828E1,8.369437E1,1.8291177E2,1.8246054E2,8.532483E2,1.230142E3,7.4394585E1,2.1416332E1,4.475787E2,1.4508984E2,1.6525914E2,1.3990229E1,4.5850115E0,1.6472603E1,1.2845595E2,3.4571243E1,2.9081474E1,4.447419E2,1.9921526E0,4.964414E0,1.00921326E3,4.1270504E1],"tree_param":{"num_deleted":"0","num_feature":"21","num_nodes":"107","size_leaf_vector":"1"}},{"base_weights":[6.3615665E-4,2.0623976E-1,-4.6427363E-1,-5.403841E-1,2.9540622E-1,-2.6828635E-1,-1.1214764E0,-5.667174E-1,1.1915528E0,4.028907E-1,-4.5605186E-1,-1.8349218E-1,-7.1407485E-1,-5.619291E-1,-1.3335428E0,-2.9916507E-1,-7.70648E-1,1.4790567E0,-2.0251314E-1,8.4709364E-1,2.426031E-1,-1.77711E-1,-1.0002073E0,-3.7471902E-1,-3.8315006E-2,-4.101578E-1,-1.1774414E0,1.0966647E0,-5.9577465E-1,-1.4281545E0,-9.345492E-1,-1.2716986E-1,-6.473464E-1,-4.5986465E-1,-1.0781512E0,1.7844838E-3,8.1047736E-2,-5.848175E-2,3.8985986E-2,1.1287047E0,-6.553766E-1,5.0963048E-2,9.2593056E-1,-2.8747934E-1,1.0150149E0,-7.9736847E-1,-1.4160556E0,-1.5842547E-1,-6.168581E-1,4.659228E-1,-2.2495581E-1,-5.949728E-1,2.581357E-1,-1.2934424E0,-9.221884E-1,-1.2455332E-2,7.8941084E-2,-1.372725E0,-5.4242855E-1,-1.4924935E0,-1.2986504E0,1.0766978E-1,-1.0286566E0,-3.2099035E-2,2.807569E-3,-5.643351E-2,-1.4101396E-2,-7.5083524E-2,-1.9101107E-2,-4.252501E-2,-6.588155E-2,6.3002765E-2,-1.751395E-2,-2.347052E-3,-4.8462376E-2,5.5481263E-2,-7.2203777E-3,7.063315E-2,-2.4957575E-2,-1.695858E-3,-2.592296E-2,8.280829E-2,-7.302221E-3,-5.172334E-2,-1.7008921E-2,-4.949516E-3,-7.493906E-2,-4.9520243E-2,-1.8286428E-3,-3.5732426E-2,1.70692E-2,-5.1802237E-2,3.97405E-2,-1.4889829E-2,3.0389477E-2,1.2329354E-2,-3.6255382E-2,4.002611E-2,2.7831227E-3,-6.603904E-2,1.5929431E-3,6.9914544E-3,-5.1677406E-2,-7.4535474E-2,-8.047904E-3,-4.4431757E-2,-2.0795872E-2,-4.1259993E-2,-7.5430386E-2,1.287617E-2,-6.648381E-2,-3.3991236E-2,6.250055E-2,-1.206271E-2,-5.6598183E-2],"categories":[],"categories_nodes":[],"categories_segments":[],"categories_sizes":[],"default_left":[0,0,0,0,0,0,0,0,0,0,0,0,0,0,0,0,0,0,0,0,0,0,0,0,0,0,0,0,0,0,0,0,0,0,0,0,0,0,0,1,0,0,0,0,0,0,0,0,0,0,0,0,0,0,0,0,0,0,1,0,0,0,0,0,0,0,0,0,0,0,0,0,0,0,0,0,0,0,0,0,0,0,0,0,0,0,0,0,0,0,0,0,0,0,0,0,0,0,0,0,0,0,0,0,0,0,0,0,0,0,0,0,0,0,0],"id":7,"left_children":[1,3,5,7,9,11,13,15,17,19,21,23,25,27,29,31,33,35,37,39,41,43,45,47,49,51,53,55,57,59,61,63,65,67,69,-1,-1,-1,-1,71,73,75,77,79,81,83,85,87,89,91,93,95,97,99,101,-1,-1,103,105,107,109,111,113,-1,-1,-1,-1,-1,-1,-1,-1,-1,-1,-1,-1,-1,-1,-1,-1,-1,-1,-1,-1,-1,-1,-1,-1,-1,-1,-1,-1,-1,-1,-1,-1,-1,-1,-1,-1,-1,-1,-1,-1,-1,-1,-1,-1,-1,-1,-1,-1,-1,-1,-1,-1],"loss_changes":[1.6249044E3,7.8484033E2,6.7109534E2,5.8040985E1,8.50678E2,1.5169366E2,1.4129663E2,6.740753E1,7.9789715E0,6.557401E2,1.9946664E2,9.370808E1,8.986249E1,1.921894E1,3.1407227E1,3.2125393E1,6.667145E1,3.2201118E0,4.859434E0,1.0341699E3,8.8666644E2,1.14624115E2,3.6478455E1,7.619939E1,1.8081313E2,4.8195053E1,6.3155212E0,4.913271E0,1.2715782E1,3.8875732E0,1.6700256E1,3.4128014E1,3.09076E1,2.7915192E1,1.8098846E1,0E0,0E0,0E0,0E0,4.001006E2,7.370047E1,1.0941384E3,1.0293738E3,4.686351E1,5.5191887E1,3.2380905E1,1.5637573E1,7.810771E1,6.4619446E1,2.5722522E2,8.522927E1,3.3581734E1,9.285857E0,6.26886E0,9.927025E0,0E0,0E0,2.6498032E0,1.3013046E1,3.7060547E0,1.1919037E1,1.4265406E1,1.2353836E1,0E0,0E0,0E0,0E0,0E0,0E0,0E0,0E0,0E0,0E0,0E0,0E0,0E0,0E0,0E0,0E0,0E0,0E0,0E0,0E0,0E0,0E0,0E0,0E0,0E0,0E0,0E0,0E0,0E0,0E0,0E0,0E0,0E0,0E0,0E0,0E0,0E0,0E0,0E0,0E0,0E0,0E0,0E0,0E0,0E0,0E0,0E0,0E0,0E0,0E0,0E0,0E0],"parents":[2147483647,0,0,1,1,2,2,3,3,4,4,5,5,6,6,7,7,8,8,9,9,10,10,11,11,12,12,13,13,14,14,15,15,16,16,17,17,18,18,19,19,20,20,21,21,22,22,23,23,24,24,25,25,26,26,27,27,28,28,29,29,30,30,31,31,32,32,33,33,34,34,39,39,40,40,41,41,42,42,43,43,44,44,45,45,46,46,47,47,48,48,49,49,50,50,51,51,52,52,53,53,54,54,57,57,58,58,59,59,60,60,61,61,62,62],"right_children":[2,4,6,8,10,12,14,16,18,20,22,24,26,28,30,32,34,36,38,40,42,44,46,48,50,52,54,56,58,60,62,64,66,68,70,-1,-1,-1,-1,72,74,76,78,80,82,84,86,88,90,92,94,96,98,100,102,-1,-1,104,106,108,110,112,114,-1,-1,-1,-1,-1,-1,-1,-1,-1,-1,-1,-1,-1,-1,-1,-1,-1,-1,-1,-1,-1,-1,-1,-1,-1,-1,-1,-1,-1,-1,-1,-1,-1,-1,-1,-1,-1,-1,-1,-1,-1,-1,-1,-1,-1,-1,-1,-1,-1,-1,-1,-1],"split_conditions":[4.1E1,-2.976382E1,7.6E1,8.3E1,9E-1,5.8291122E1,2.24445E0,1E0,3E0,7.7E0,3E0,3.85E4,9.8E0,7.2E0,-7.356801E1,-7.376162E1,-7.385265E1,-7.331332E1,2E0,5.324123E0,2.6338621E1,5.648E4,7.5E1,-7.390765E1,1.04E1,-7.366106E1,-7.381518E1,6.5E0,-1.3E0,-7.383243E1,7.6E0,-7.398687E1,-6E-1,7.4E0,9.8E0,1.7844838E-3,8.1047736E-2,-5.848175E-2,3.8985986E-2,3.32E4,6.671997E0,-2.9008698E1,3.843237E1,5.6E1,5.946474E0,-7.382459E1,5.7E0,8.9E0,-7.337706E1,-4.7E1,1.47E1,-3.8E1,-7.36068E1,6.419293E1,8.6E1,-1.2455332E-2,7.8941084E-2,1.4E1,1.59E4,-7.418824E1,-7.383064E1,7.1E1,9.2E1,-3.2099035E-2,2.807569E-3,-5.643351E-2,-1.4101396E-2,-7.5083524E-2,-1.9101107E-2,-4.252501E-2,-6.588155E-2,6.3002765E-2,-1.751395E-2,-2.347052E-3,-4.8462376E-2,5.5481263E-2,-7.2203777E-3,7.063315E-2,-2.4957575E-2,-1.695858E-3,-2.592296E-2,8.280829E-2,-7.302221E-3,-5.172334E-2,-1.7008921E-2,-4.949516E-3,-7.493906E-2,-4.9520243E-2,-1.8286428E-3,-3.5732426E-2,1.70692E-2,-5.1802237E-2,3.97405E-2,-1.4889829E-2,3.0389477E-2,1.2329354E-2,-3.6255382E-2,4.002611E-2,2.7831227E-3,-6.603904E-2,1.5929431E-3,6.9914544E-3,-5.1677406E-2,-7.4535474E-2,-8.047904E-3,-4.4431757E-2,-2.0795872E-2,-4.1259993E-2,-7.5430386E-2,1.287617E-2,-6.648381E-2,-3.3991236E-2,6.250055E-2,-1.206271E-2,-5.6598183E-2],"split_indices":[12,9,11,11,19,9,9,15,18,16,5,4,16,10,1,1,1,1,12,9,9,4,3,1,10,1,1,10,19,1,10,1,19,2,16,0,0,0,0,4,9,9,9,11,9,1,10,10,1,20,10,20,1,9,12,0,0,16,4,1,1,7,5,0,0,0,0,0,0,0,0,0,0,0,0,0,0,0,0,0,0,0,0,0,0,0,0,0,0,0,0,0,0,0,0,0,0,0,0,0,0,0,0,0,0,0,0,0,0,0,0,0,0,0,0],"split_type":[0,0,0,0,0,0,0,0,0,0,0,0,0,0,0,0,0,0,0,0,0,0,0,0,0,0,0,0,0,0,0,0,0,0,0,0,0,0,0,0,0,0,0,0,0,0,0,0,0,0,0,0,0,0,0,0,0,0,0,0,0,0,0,0,0,0,0,0,0,0,0,0,0,0,0,0,0,0,0,0,0,0,0,0,0,0,0,0,0,0,0,0,0,0,0,0,0,0,0,0,0,0,0,0,0,0,0,0,0,0,0,0,0,0,0],"sum_hessian":[1.6997195E4,1.1785628E4,5.211568E3,1.2568121E3,1.0528816E4,4.0154973E3,1.1960707E3,1.2386519E3,1.8160313E1,9.211689E3,1.3171265E3,3.3749534E3,6.405439E2,3.297252E2,8.6634546E2,5.368215E2,7.018304E2,1.5004838E1,3.155475E0,2.4414495E3,6.77024E3,8.722756E2,4.4485092E2,1.4557991E3,1.9191543E3,3.8796625E2,2.5257764E2,5.965887E0,3.237593E2,6.982039E2,1.6814151E2,3.6023648E2,1.7658498E2,3.5029462E2,3.515358E2,1.455115E0,1.3549723E1,1.4938323E0,1.6616426E0,2.0562847E3,3.851648E2,5.288225E3,1.4820148E3,7.994591E2,7.2816444E1,3.0096588E2,1.4388507E2,7.698109E2,6.8598816E2,5.180551E2,1.4010991E3,3.040043E2,8.396196E1,1.7086147E2,8.171617E1,1.7011306E0,4.2647567E0,1.921232E1,3.04547E2,4.594297E2,2.3877426E2,1.3913079E1,1.5422842E2,9.393687E1,2.6629962E2,7.529319E1,1.01291794E2,2.3082232E1,3.2721237E2,1.8255206E2,1.6898373E2,1.888695E3,1.6758965E2,1.3146695E2,2.5369785E2,8.23144E2,4.4650815E3,1.1047124E3,3.7730237E2,3.8164667E2,4.1781244E2,4.6636677E1,2.6179766E1,1.9735507E2,1.03610794E2,8.6332035E0,1.3525186E2,9.743321E1,6.723777E2,6.226952E2,6.3292953E1,9.267505E1,4.253801E2,1.2889926E3,1.12106636E2,4.0594116E1,2.634102E2,2.2020258E1,6.1941704E1,1.6741151E2,3.4499552E0,7.7310343E0,7.398514E1,1.7297907E1,1.9144148E0,7.989219E1,2.246548E2,1.2063981E1,4.473657E2,4.5247297E0,2.3424954E2,8.475333E0,5.4377465E0,1.8274687E1,1.3595374E2],"tree_param":{"num_deleted":"0","num_feature":"21","num_nodes":"115","size_leaf_vector":"1"}},{"base_weights":[1.6413034E-3,1.9997995E-1,-4.5529333E-1,4.608561E-1,-9.412743E-3,-2.6826227E-1,-1.0913465E0,6.594503E-1,-3.4136215E-1,2.2791931E-1,-5.556138E-1,-1.7253588E-1,-6.5366864E-1,-5.49265E-1,-1.2912091E0,8.433143E-1,-4.885006E-1,-6.4972675E-1,7.895413E-1,-1.5836851E-1,6.463972E-1,-4.2283967E-1,-1.2414248E0,7.205174E-2,-2.8233007E-1,-4.0778798E-1,-1.0633131E0,-9.6197975E-1,-3.7021604E-1,-1.4041086E0,-1.0116199E0,6.6633034E-1,1.398258E0,-3.433839E-2,-7.756837E-1,-1.2373697E0,-3.2971418E-1,-9.5913595E-1,1.1787372E0,1.208678E0,-2.998684E-1,1.0843891E0,-3.203724E-1,-2.4347162E-1,-6.9887054E-1,-1.2951627E0,2.7614169E-2,-3.8957304E-1,1.5622569E0,-1.7751737E-1,-5.76366E-1,-5.7788223E-1,1.2138926E0,-1.1274872E0,8.117146E-1,-1.1229898E0,-2.1176617E-1,1.5076334E0,-4.373859E-1,-1.4156821E0,-4.9575552E-1,-2.40085E-3,-1.0756645E0,4.264411E-2,-7.964893E-3,7.498343E-2,-2.4812292E-2,-1.1314361E-2,5.9641548E-2,7.4038217E-3,-5.0860327E-2,-1.7677268E-2,-6.988936E-2,-2.9888678E-2,3.9095804E-2,-5.6935858E-2,1.3394496E-2,8.378487E-2,-3.500462E-2,7.998512E-2,-2.0778589E-2,-5.7221795E-3,-4.0828507E-2,3.309467E-2,7.593785E-2,-4.1265036E-3,-6.0186386E-2,-5.15491E-3,-3.4034185E-2,-2.5242357E-2,-4.923651E-2,-2.1981912E-2,-6.696993E-2,4.6006624E-2,-2.4777299E-2,5.2043315E-2,-2.115718E-2,8.2680285E-2,-2.9328216E-2,-1.29299285E-2,1.6317887E-2,-2.3022505E-2,-5.534503E-2,-1.7332904E-2,-4.8647314E-2,-5.77361E-2,6.5841205E-2,-5.747054E-2,3.743623E-3,6.968915E-2,-1.0200321E-2,-6.020763E-2,1.4357338E-2,-7.134577E-2,2.0602182E-2,1.4326866E-2,8.421807E-2,-3.5434783E-2,-9.415541E-3,-7.099938E-2,-5.4848907E-3,-6.450363E-2,2.2441747E-2,-3.7257385E-2,6.015094E-2,-5.857114E-2,-3.4049094E-2],"categories":[],"categories_nodes":[],"categories_segments":[],"categories_sizes":[],"default_left":[0,0,0,0,0,0,0,0,0,0,0,0,0,0,0,0,0,0,0,0,0,0,0,0,0,0,0,0,0,0,0,0,0,0,0,0,0,0,0,0,0,0,0,0,0,0,0,0,0,0,0,0,0,0,0,0,0,0,0,0,0,0,0,0,0,0,0,0,0,0,0,0,0,0,0,0,0,0,0,0,0,0,0,0,0,0,0,0,0,0,0,0,0,0,0,0,0,0,0,0,0,0,0,0,0,0,0,0,0,0,0,0,0,0,0,0,0,0,0,0,0,0,0,0,0,0,0],"id":8,"left_children":[1,3,5,7,9,11,13,15,17,19,21,23,25,27,29,31,33,35,37,39,41,43,45,47,49,51,53,55,57,59,61,63,65,67,69,71,73,75,77,79,81,83,85,87,89,91,93,95,97,99,101,103,105,107,109,111,113,115,117,119,121,123,125,-1,-1,-1,-1,-1,-1,-1,-1,-1,-1,-1,-1,-1,-1,-1,-1,-1,-1,-1,-1,-1,-1,-1,-1,-1,-1,-1,-1,-1,-1,-1,-1,-1,-1,-1,-1,-1,-1,-1,-1,-1,-1,-1,-1,-1,-1,-1,-1,-1,-1,-1,-1,-1,-1,-1,-1,-1,-1,-1,-1,-1,-1,-1,-1],"loss_changes":[1.533407E3,6.44505E2,6.08947E2,8.371826E2,8.4870044E2,1.4594556E2,1.2533545E2,8.8928467E2,3.6427942E2,7.378822E2,1.8005164E2,8.521835E1,7.886694E1,2.2930992E1,2.5387085E1,3.556223E2,7.588614E1,1.5382867E2,1.5353925E2,4.5959503E2,9.28059E2,8.216455E1,2.1936096E1,6.773312E2,6.738675E1,1.3686063E2,3.6374573E1,1.1204048E1,2.858686E1,5.6308594E0,1.6018448E1,4.2437317E2,1.6921973E2,5.3626034E1,7.969263E1,4.0453094E1,1.5910439E2,9.409767E0,1.7262051E2,1.4222293E2,2.0610593E2,2.7574622E2,1.435827E2,6.1885853E1,3.5801117E1,1.1071716E1,7.0048804E0,3.6545677E1,4.6678528E1,6.609943E1,3.4853058E1,4.0535355E1,1.3023781E1,7.608032E0,6.39374E0,9.244766E0,1.4209415E1,1.2159634E0,1.4364296E1,3.185791E0,7.419966E0,1.5036489E1,8.011169E0,0E0,0E0,0E0,0E0,0E0,0E0,0E0,0E0,0E0,0E0,0E0,0E0,0E0,0E0,0E0,0E0,0E0,0E0,0E0,0E0,0E0,0E0,0E0,0E0,0E0,0E0,0E0,0E0,0E0,0E0,0E0,0E0,0E0,0E0,0E0,0E0,0E0,0E0,0E0,0E0,0E0,0E0,0E0,0E0,0E0,0E0,0E0,0E0,0E0,0E0,0E0,0E0,0E0,0E0,0E0,0E0,0E0,0E0,0E0,0E0,0E0,0E0,0E0,0E0],"parents":[2147483647,0,0,1,1,2,2,3,3,4,4,5,5,6,6,7,7,8,8,9,9,10,10,11,11,12,12,13,13,14,14,15,15,16,16,17,17,18,18,19,19,20,20,21,21,22,22,23,23,24,24,25,25,26,26,27,27,28,28,29,29,30,30,31,31,32,32,33,33,34,34,35,35,36,36,37,37,38,38,39,39,40,40,41,41,42,42,43,43,44,44,45,45,46,46,47,47,48,48,49,49,50,50,51,51,52,52,53,53,54,54,55,55,56,56,57,57,58,58,59,59,60,60,61,61,62,62],"right_children":[2,4,6,8,10,12,14,16,18,20,22,24,26,28,30,32,34,36,38,40,42,44,46,48,50,52,54,56,58,60,62,64,66,68,70,72,74,76,78,80,82,84,86,88,90,92,94,96,98,100,102,104,106,108,110,112,114,116,118,120,122,124,126,-1,-1,-1,-1,-1,-1,-1,-1,-1,-1,-1,-1,-1,-1,-1,-1,-1,-1,-1,-1,-1,-1,-1,-1,-1,-1,-1,-1,-1,-1,-1,-1,-1,-1,-1,-1,-1,-1,-1,-1,-1,-1,-1,-1,-1,-1,-1,-1,-1,-1,-1,-1,-1,-1,-1,-1,-1,-1,-1,-1,-1,-1,-1,-1],"split_conditions":[4.2E1,8.9E0,7.6E1,1E0,5.6E1,7.3E1,2.24445E0,5.403429E0,5.7E1,1.577732E1,3E0,-2.9070467E1,4.424983E1,4.06935E1,-7.371742E1,-2.6130543E0,6.671997E0,5.8E1,-2.9847315E1,1E1,3.843237E1,4.07648E1,1.58E1,-2.976382E1,6.9E1,1.36E1,4.7E1,-7.350627E1,4.070314E1,4.115068E1,7.6E0,-1.2138772E1,4.119024E1,7.1E1,-7.402684E1,-2.2877813E1,-2.1805908E1,-7.350962E1,-2.358434E1,-2.2399128E1,-7.376162E1,3.4286724E1,1.8E1,2.7548536E1,6.9E1,-2.1805908E1,-1E0,4.058326E1,6.5E1,-7.362716E1,3.783467E1,4.075667E1,1.7E1,9E1,1.22E1,9E-1,1.03E1,-1.3768287E1,-3E-1,2.1E0,8.6E1,7.8E1,5.886528E1,4.264411E-2,-7.964893E-3,7.498343E-2,-2.4812292E-2,-1.1314361E-2,5.9641548E-2,7.4038217E-3,-5.0860327E-2,-1.7677268E-2,-6.988936E-2,-2.9888678E-2,3.9095804E-2,-5.6935858E-2,1.3394496E-2,8.378487E-2,-3.500462E-2,7.998512E-2,-2.0778589E-2,-5.7221795E-3,-4.0828507E-2,3.309467E-2,7.593785E-2,-4.1265036E-3,-6.0186386E-2,-5.15491E-3,-3.4034185E-2,-2.5242357E-2,-4.923651E-2,-2.1981912E-2,-6.696993E-2,4.6006624E-2,-2.4777299E-2,5.2043315E-2,-2.115718E-2,8.2680285E-2,-2.9328216E-2,-1.29299285E-2,1.6317887E-2,-2.3022505E-2,-5.534503E-2,-1.7332904E-2,-4.8647314E-2,-5.77361E-2,6.5841205E-2,-5.747054E-2,3.743623E-3,6.968915E-2,-1.0200321E-2,-6.020763E-2,1.4357338E-2,-7.134577E-2,2.0602182E-2,1.4326866E-2,8.421807E-2,-3.5434783E-2,-9.415541E-3,-7.099938E-2,-5.4848907E-3,-6.450363E-2,2.2441747E-2,-3.7257385E-2,6.015094E-2,-5.857114E-2,-3.4049094E-2],"split_indices":[12,2,11,15,11,17,9,9,6,9,6,9,9,0,1,9,9,17,9,13,9,0,13,9,6,2,20,1,0,0,2,9,0,11,1,9,9,1,9,9,1,9,6,9,17,9,20,0,17,1,9,0,15,14,13,19,13,9,19,19,14,7,9,0,0,0,0,0,0,0,0,0,0,0,0,0,0,0,0,0,0,0,0,0,0,0,0,0,0,0,0,0,0,0,0,0,0,0,0,0,0,0,0,0,0,0,0,0,0,0,0,0,0,0,0,0,0,0,0,0,0,0,0,0,0,0,0],"split_type":[0,0,0,0,0,0,0,0,0,0,0,0,0,0,0,0,0,0,0,0,0,0,0,0,0,0,0,0,0,0,0,0,0,0,0,0,0,0,0,0,0,0,0,0,0,0,0,0,0,0,0,0,0,0,0,0,0,0,0,0,0,0,0,0,0,0,0,0,0,0,0,0,0,0,0,0,0,0,0,0,0,0,0,0,0,0,0,0,0,0,0,0,0,0,0,0,0,0,0,0,0,0,0,0,0,0,0,0,0,0,0,0,0,0,0,0,0,0,0,0,0,0,0,0,0,0,0],"sum_hessian":[1.6917826E4,1.1797518E4,5.1203096E3,5.2524478E3,6.54507E3,3.9579104E3,1.1623992E3,4.2103315E3,1.0421161E3,4.5629756E3,1.9820942E3,3.1716023E3,7.86308E2,3.1413315E2,8.4826605E2,3.629302E3,5.8102954E2,8.19176E2,2.2294006E2,2.3730688E3,2.1899067E3,1.6619537E3,3.2014047E2,9.8272894E2,2.1888735E3,4.9261902E2,2.9368896E2,9.372372E1,2.2040942E2,6.01397E2,2.4686911E2,2.7533862E3,8.759157E2,2.2551353E2,3.5551602E2,2.878066E2,5.313694E2,4.031923E1,1.8262082E2,2.2188364E2,2.151185E3,1.5070299E3,6.8287683E2,1.00850055E3,6.5345325E2,3.07115E2,1.3025472E1,7.508689E2,2.3186003E2,1.6148457E3,5.740277E2,4.4643695E2,4.6182068E1,2.843554E2,9.333565E0,7.6753975E1,1.6969748E1,6.8710895E0,2.1353835E2,5.932794E2,8.117552E0,1.4793276E1,2.3207584E2,2.245891E3,5.0749524E2,8.31609E2,4.4306675E1,1.9571603E2,2.9797503E1,7.3766365E1,2.8174966E2,4.4705353E1,2.4310126E2,4.285023E2,1.028671E2,3.5234467E1,5.084765E0,1.4450627E2,3.8114548E1,1.7884366E2,4.3039986E1,1.5839769E3,5.672082E2,7.652346E2,7.417953E2,5.38878E2,1.4399883E2,7.6433514E2,2.4416536E2,3.909007E2,2.6255258E2,1.5636807E1,2.914782E2,4.5331163E0,8.492355E0,1.65298E1,7.343391E2,2.226264E2,9.233635E0,1.3914302E3,2.2341554E2,4.7263095E2,1.01396774E2,2.827978E2,1.6363916E2,1.497766E0,4.4684303E1,2.793066E2,5.0487957E0,5.6967683E0,3.6367962E0,7.271482E1,4.039153E0,5.319743E0,1.1650004E1,1.2001355E0,5.670954E0,1.0132397E2,1.1221437E2,5.91243E2,2.0364406E0,4.2108507E0,3.9067008E0,9.389535E0,5.4037404E0,1.8517938E2,4.6896458E1],"tree_param":{"num_deleted":"0","num_feature":"21","num_nodes":"127","size_leaf_vector":"1"}},{"base_weights":[-1.8103352E-4,-9.2512864E-1,8.971426E-2,1.0323166E-2,-1.1059974E0,2.007982E-1,-5.310698E-1,1.4106262E0,-5.009047E-1,-1.2453064E0,-5.108448E-1,1.1868036E-1,1.451672E0,-2.642918E-1,-1.0460505E0,1.4958212E0,2.66728E-1,1.579079E-1,-7.467537E-1,-8.165873E-1,-1.3292153E0,-1.413771E0,-4.4707698E-1,4.3027118E-1,-1.5100937E-1,-9.817216E-1,1.4869248E0,-5.4626817E-1,-5.5337786E-3,2.256708E-1,-1.0887716E0,4.0683892E-1,7.792259E-2,7.1879363E-1,-2.7589325E-2,1.0796189E0,-4.2739165E-1,-1.2944278E0,-3.3708015E-1,9.867784E-2,-9.3707156E-1,1.3532093E-1,-1.3455495E0,-7.943356E-2,8.622033E-3,-7.763196E-1,-3.2228625E-1,6.339373E-1,-2.4874948E-1,-2.1986051E-1,1.0324427E0,6.185991E-1,-8.4708594E-2,1.5096594E0,1.0297351E-2,1.1660056E-2,-6.908402E-1,3.959179E-1,-1.9707447E-1,-1.5798225E-1,1.1115698E0,-1.2237716E0,-7.7498984E-1,4.0713347E-2,-1.603677E-2,-4.72434E-3,5.289174E-2,6.215278E-2,-1.29736215E-2,7.466085E-2,-3.3681992E-2,-3.4546804E-2,-7.1207486E-2,-3.946739E-2,1.3256976E-2,-5.9569515E-2,4.1532688E-2,6.285481E-3,-5.5728685E-2,-3.688268E-2,3.8506646E-2,-6.795982E-2,-3.1196192E-2,-4.7878634E-2,8.69672E-3,5.034786E-2,-2.3356503E-2,4.3615103E-2,-1.2531421E-2,-1.7712858E-2,3.17222E-2,-1.757106E-2,1.4414426E-3,-3.9169997E-2,5.6167454E-2,4.3831516E-2,-3.3447535E-3,7.561569E-2,2.2351712E-3,-9.597106E-2,6.030916E-2,-7.6412894E-3,6.0257226E-2,3.868523E-2,-3.6110073E-2,3.5578936E-2,9.005201E-3,-3.0855104E-2,-4.1646133E-3,3.408776E-2,-2.5981901E-2,2.8768066E-2,7.835676E-2,-6.445486E-2,-5.02987E-2,1.6854519E-2,-4.1692145E-2],"categories":[],"categories_nodes":[],"categories_segments":[],"categories_sizes":[],"default_left":[0,0,0,0,0,0,0,0,0,0,0,0,0,0,0,0,0,0,0,0,0,0,0,0,0,0,0,0,0,0,0,0,0,0,0,0,0,0,0,0,0,0,0,0,0,0,0,0,0,0,0,0,0,0,1,0,0,0,0,0,0,0,0,0,0,0,0,0,0,0,0,0,0,0,0,0,0,0,0,0,0,0,0,0,0,0,0,0,0,0,0,0,0,0,0,0,0,0,0,0,0,0,0,0,0,0,0,0,0,0,0,0,0,0,0,0,0],"id":9,"left_children":[1,3,5,7,9,11,13,15,17,19,21,23,25,27,29,31,33,35,37,39,41,43,45,47,49,51,53,55,57,59,61,63,-1,65,-1,67,69,71,73,75,77,79,81,-1,-1,83,85,87,89,91,93,95,-1,97,99,101,103,105,107,109,111,113,115,-1,-1,-1,-1,-1,-1,-1,-1,-1,-1,-1,-1,-1,-1,-1,-1,-1,-1,-1,-1,-1,-1,-1,-1,-1,-1,-1,-1,-1,-1,-1,-1,-1,-1,-1,-1,-1,-1,-1,-1,-1,-1,-1,-1,-1,-1,-1,-1,-1,-1,-1,-1,-1,-1],"loss_changes":[1.3978142E3,2.5196387E2,1.0566945E3,1.7413669E2,1.0282471E2,1.3348755E3,3.1926306E2,5.9408264E0,2.8982231E1,3.5265015E1,1.3093594E1,1.0250552E3,7.013733E1,1.1188597E2,4.3348877E1,3.4805298E0,2.5154624E0,2.7033525E1,2.8721184E1,1.8617905E1,2.036023E1,4.5082245E0,8.958195E0,7.8281384E2,5.330468E2,1.4769579E1,2.648999E1,5.919792E1,6.1645626E1,9.221061E0,3.1574158E1,1.6349013E0,0E0,1.2368541E0,0E0,4.571333E0,1.5592363E1,3.34198E0,2.0826067E1,2.0297348E1,2.8162766E1,6.227584E0,7.36792E0,0E0,0E0,1.0654041E1,3.209049E1,9.182252E2,1.2197224E2,2.0221942E2,6.0255188E1,8.4396374E-1,0E0,2.9560547E0,3.226639E1,3.0023335E1,2.7327332E1,1.751302E1,2.588615E1,6.2601814E0,1.0933552E0,6.316101E0,1.5575195E1,0E0,0E0,0E0,0E0,0E0,0E0,0E0,0E0,0E0,0E0,0E0,0E0,0E0,0E0,0E0,0E0,0E0,0E0,0E0,0E0,0E0,0E0,0E0,0E0,0E0,0E0,0E0,0E0,0E0,0E0,0E0,0E0,0E0,0E0,0E0,0E0,0E0,0E0,0E0,0E0,0E0,0E0,0E0,0E0,0E0,0E0,0E0,0E0,0E0,0E0,0E0,0E0,0E0,0E0],"parents":[2147483647,0,0,1,1,2,2,3,3,4,4,5,5,6,6,7,7,8,8,9,9,10,10,11,11,12,12,13,13,14,14,15,15,16,16,17,17,18,18,19,19,20,20,21,21,22,22,23,23,24,24,25,25,26,26,27,27,28,28,29,29,30,30,31,31,33,33,35,35,36,36,37,37,38,38,39,39,40,40,41,41,42,42,45,45,46,46,47,47,48,48,49,49,50,50,51,51,53,53,54,54,55,55,56,56,57,57,58,58,59,59,60,60,61,61,62,62],"right_children":[2,4,6,8,10,12,14,16,18,20,22,24,26,28,30,32,34,36,38,40,42,44,46,48,50,52,54,56,58,60,62,64,-1,66,-1,68,70,72,74,76,78,80,82,-1,-1,84,86,88,90,92,94,96,-1,98,100,102,104,106,108,110,112,114,116,-1,-1,-1,-1,-1,-1,-1,-1,-1,-1,-1,-1,-1,-1,-1,-1,-1,-1,-1,-1,-1,-1,-1,-1,-1,-1,-1,-1,-1,-1,-1,-1,-1,-1,-1,-1,-1,-1,-1,-1,-1,-1,-1,-1,-1,-1,-1,-1,-1,-1,-1,-1,-1,-1],"split_conditions":[2.08E4,2E0,3.843237E1,6.7E0,1.2E1,3.4286724E1,1E0,4.079167E1,4.060381E1,-9.003596E0,-2.4E1,1E0,8E0,-7.385265E1,-1.17039E2,1.9E4,-1.2138772E1,9E0,5.3E1,-7.385265E1,4.9E0,9.2E1,4.06935E1,1E1,2.6338621E1,3.7E1,-1.11754E0,-7.401193E1,4.4E1,1E2,-7.378827E1,-7.331332E1,7.792259E-2,-1.3530368E1,-2.7589325E-2,7.9E1,-2E0,-3.3220684E1,-2.1805908E1,4.065336E1,4.06166E1,9.9E1,-7.327966E1,-7.943356E-2,8.622033E-3,1.69E1,4.070616E1,5.207731E0,5.324123E0,5E1,1.12E1,5.862139E1,-8.4708594E-2,6.4E1,7.144E4,-7.401893E1,4.063702E1,4.8564377E1,4.9E1,6E0,5.890144E1,4.093944E1,-7.377176E1,4.0713347E-2,-1.603677E-2,-4.72434E-3,5.289174E-2,6.215278E-2,-1.29736215E-2,7.466085E-2,-3.3681992E-2,-3.4546804E-2,-7.1207486E-2,-3.946739E-2,1.3256976E-2,-5.9569515E-2,4.1532688E-2,6.285481E-3,-5.5728685E-2,-3.688268E-2,3.8506646E-2,-6.795982E-2,-3.1196192E-2,-4.7878634E-2,8.69672E-3,5.034786E-2,-2.3356503E-2,4.3615103E-2,-1.2531421E-2,-1.7712858E-2,3.17222E-2,-1.757106E-2,1.4414426E-3,-3.9169997E-2,5.6167454E-2,4.3831516E-2,-3.3447535E-3,7.561569E-2,2.2351712E-3,-9.597106E-2,6.030916E-2,-7.6412894E-3,6.0257226E-2,3.868523E-2,-3.6110073E-2,3.5578936E-2,9.005201E-3,-3.0855104E-2,-4.1646133E-3,3.408776E-2,-2.5981901E-2,2.8768066E-2,7.835676E-2,-6.445486E-2,-5.02987E-2,1.6854519E-2,-4.1692145E-2],"split_indices":[4,5,9,10,13,9,7,0,0,9,20,18,15,1,1,4,9,7,18,1,13,11,0,13,9,17,1,1,17,7,1,1,0,9,0,14,20,9,9,0,0,5,1,0,0,13,0,9,9,5,10,0,0,11,4,1,0,9,17,7,0,0,1,0,0,0,0,0,0,0,0,0,0,0,0,0,0,0,0,0,0,0,0,0,0,0,0,0,0,0,0,0,0,0,0,0,0,0,0,0,0,0,0,0,0,0,0,0,0,0,0,0,0,0,0,0,0],"split_type":[0,0,0,0,0,0,0,0,0,0,0,0,0,0,0,0,0,0,0,0,0,0,0,0,0,0,0,0,0,0,0,0,0,0,0,0,0,0,0,0,0,0,0,0,0,0,0,0,0,0,0,0,0,0,0,0,0,0,0,0,0,0,0,0,0,0,0,0,0,0,0,0,0,0,0,0,0,0,0,0,0,0,0,0,0,0,0,0,0,0,0,0,0,0,0,0,0,0,0,0,0,0,0,0,0,0,0,0,0,0,0,0,0,0,0,0,0],"sum_hessian":[1.6809072E4,1.488133E3,1.5320939E4,2.4126349E2,1.2468695E3,1.299608E4,2.3248596E3,6.405401E1,1.7720949E2,1.00948456E3,2.3738503E2,1.2196494E4,7.995853E2,1.5324897E3,7.9236993E2,5.9327755E1,4.7262554E0,4.8255302E1,1.2895418E2,1.6699292E2,8.4249164E2,1.4262559E1,2.2312247E2,5.6583843E3,6.5381104E3,1.1034888E1,7.885505E2,7.328117E2,7.9967804E2,2.5613832E1,7.667561E2,3.634207E0,5.5693546E1,3.1231635E0,1.603092E0,1.8413599E1,2.9841705E1,5.425862E1,7.469556E1,1.9446617E1,1.475463E2,9.21247E0,8.332792E2,1.2844713E1,1.4178455E0,5.989006E1,1.632324E2,4.352852E3,1.3055322E3,6.179417E3,3.5869324E2,3.4398825E0,7.595006E0,7.765718E2,1.1978688E1,1.5099919E2,5.818125E2,2.5795697E2,5.4172107E2,1.844681E1,7.167022E0,5.340773E2,2.3267882E2,2.2532668E0,1.3809402E0,1.1311383E0,1.9920251E0,1.6474586E1,1.9390125E0,2.8158286E0,2.7025877E1,1.071883E1,4.353979E1,4.2481316E1,3.2214245E1,6.8124337E0,1.2634184E1,2.1157726E1,1.2638857E2,3.8104496E0,5.402021E0,8.16946E2,1.6333178E1,5.0289967E1,9.600093E0,1.545437E1,1.4777803E2,3.4288818E3,9.2397015E2,1.1667494E3,1.387828E2,4.0411633E3,2.1382537E3,1.6737911E1,3.4195532E2,2.296582E0,1.1433005E0,7.75135E2,1.4367634E0,4.351673E0,7.627015E0,1.3347556E2,1.752363E1,1.1701308E1,5.701112E2,1.03814766E2,1.541422E2,1.14525604E2,4.2719547E2,5.2866087E0,1.3160202E1,4.331606E0,2.8354166E0,4.070647E2,1.27012596E2,1.1457205E1,2.2122162E2],"tree_param":{"num_deleted":"0","num_feature":"21","num_nodes":"117","size_leaf_vector":"1"}},{"base_weights":[4.2816717E-3,1.837921E-1,-4.0146372E-1,2.5889686E-1,-4.4809785E-1,-2.1848464E-1,-9.674342E-1,-1.6750073E-1,3.9114285E-1,-2.1509115E-1,-1.0171402E0,-1.2422076E0,-1.8371624E-1,-1.1658496E0,-6.891147E-1,5.6390065E-1,-2.2393468E-1,5.900966E-1,1.3330682E-1,9.105071E-1,-2.7887958E-1,-7.577366E-1,-1.1688375E0,-1.3497916E0,-5.3387356E-1,-2.281081E-1,1.9294113E-1,-1.2116357E0,-5.27524E-1,-7.808599E-1,6.33379E-2,1.3669945E0,-8.6573444E-2,-2.9323256E-1,4.1231483E-1,1.001833E0,3.7076122E-1,6.762116E-1,-4.0838856E-1,1.4920102E0,-3.1092593E-1,7.9551674E-2,-4.4700474E-1,5.119151E-1,-9.3891037E-1,-1.1900852E0,5.3153317E-2,2.4659649E-2,-1.3734844E0,1.976395E-3,-6.9453776E-2,-6.056662E-1,-1.6234986E-1,-1.0202916E0,2.8502414E-1,-8.762382E-1,-1.2841457E0,7.207011E-2,-6.436378E-1,-8.541493E-1,4.4775832E-2,-9.1391474E-1,3.334916E-1,-4.8529495E-2,7.511723E-2,9.882077E-3,-8.629078E-2,-9.717182E-3,-2.7902856E-2,-1.3821705E-2,5.9468545E-2,5.4123696E-2,-3.320446E-2,3.8112838E-2,-3.428808E-3,1.3812885E-2,5.5745807E-2,-2.4637202E-2,1.9076072E-2,2.1100927E-3,7.797076E-2,8.338132E-3,-7.099029E-2,-3.937696E-3,1.983166E-2,-1.0467455E-3,-3.0011812E-2,4.246645E-2,-2.3181906E-2,1.7548224E-3,-5.29157E-2,-6.7042105E-2,-5.006401E-2,-6.9570474E-2,-1.0369867E-3,-5.9759405E-2,2.0720957E-2,-6.393557E-2,-2.0436184E-2,2.2881601E-2,-1.2356808E-2,-8.040341E-2,-3.15056E-2,-2.4266994E-2,1.9459857E-2,-1.3572869E-2,-5.5972736E-2,-2.5851855E-2,-6.549456E-2,-8.392409E-3,-5.0053865E-2,-5.5341303E-2,-3.2039754E-2,2.3259105E-2,-4.1686304E-2,4.286901E-2,-6.4844474E-2,-2.223375E-2,3.0157877E-2],"categories":[],"categories_nodes":[],"categories_segments":[],"categories_sizes":[],"default_left":[0,0,0,0,0,0,0,0,0,0,0,0,0,0,0,0,0,0,0,1,0,0,0,0,0,0,0,0,0,0,0,0,0,0,0,1,0,0,0,0,0,0,0,0,0,0,0,0,0,0,0,0,0,0,0,0,0,0,0,0,0,0,0,0,0,0,0,0,0,0,0,0,0,0,0,0,0,0,0,0,0,0,0,0,0,0,0,0,0,0,0,0,0,0,0,0,0,0,0,0,0,0,0,0,0,0,0,0,0,0,0,0,0,0,0,0,0,0,0],"id":10,"left_children":[1,3,5,7,9,11,13,15,17,19,21,23,25,27,29,31,33,35,37,39,41,43,45,47,49,51,53,55,57,59,61,63,65,67,69,71,73,75,77,79,81,83,85,87,89,91,-1,-1,93,95,-1,97,99,101,103,105,107,-1,109,111,113,115,117,-1,-1,-1,-1,-1,-1,-1,-1,-1,-1,-1,-1,-1,-1,-1,-1,-1,-1,-1,-1,-1,-1,-1,-1,-1,-1,-1,-1,-1,-1,-1,-1,-1,-1,-1,-1,-1,-1,-1,-1,-1,-1,-1,-1,-1,-1,-1,-1,-1,-1,-1,-1,-1,-1,-1,-1],"loss_changes":[1.2161251E3,5.494685E2,5.301531E2,5.83499E2,1.6287439E2,1.3756653E2,6.8275635E1,1.0125212E2,4.050437E2,6.3005165E1,1.3165741E1,8.956711E0,6.2668816E1,2.0662292E1,3.6159058E1,9.194527E1,1.0043692E2,4.0217615E2,1.0122473E3,3.3922264E1,4.992375E1,3.144381E1,1.1862732E1,5.462738E0,8.434166E0,8.3097824E1,4.4466766E1,1.5394897E1,1.2484639E1,2.8254211E1,1.5556785E1,2.636528E1,4.602676E1,5.3638504E1,1.2015088E2,2.0876733E2,5.005381E2,3.0130627E2,1.1500107E2,3.069748E0,8.723045E0,1.3342115E1,3.6788918E1,6.13979E0,1.3777985E1,4.9717407E0,0E0,0E0,2.6011963E0,6.573479E0,0E0,6.5314285E1,1.5020322E2,5.43421E0,2.974619E1,1.7920845E1,1.0311157E1,0E0,8.067759E0,2.2381989E1,1.477966E1,9.780651E0,9.9193945E0,0E0,0E0,0E0,0E0,0E0,0E0,0E0,0E0,0E0,0E0,0E0,0E0,0E0,0E0,0E0,0E0,0E0,0E0,0E0,0E0,0E0,0E0,0E0,0E0,0E0,0E0,0E0,0E0,0E0,0E0,0E0,0E0,0E0,0E0,0E0,0E0,0E0,0E0,0E0,0E0,0E0,0E0,0E0,0E0,0E0,0E0,0E0,0E0,0E0,0E0,0E0,0E0,0E0,0E0,0E0,0E0],"parents":[2147483647,0,0,1,1,2,2,3,3,4,4,5,5,6,6,7,7,8,8,9,9,10,10,11,11,12,12,13,13,14,14,15,15,16,16,17,17,18,18,19,19,20,20,21,21,22,22,23,23,24,24,25,25,26,26,27,27,28,28,29,29,30,30,31,31,32,32,33,33,34,34,35,35,36,36,37,37,38,38,39,39,40,40,41,41,42,42,43,43,44,44,45,45,48,48,49,49,51,51,52,52,53,53,54,54,55,55,56,56,58,58,59,59,60,60,61,61,62,62],"right_children":[2,4,6,8,10,12,14,16,18,20,22,24,26,28,30,32,34,36,38,40,42,44,46,48,50,52,54,56,58,60,62,64,66,68,70,72,74,76,78,80,82,84,86,88,90,92,-1,-1,94,96,-1,98,100,102,104,106,108,-1,110,112,114,116,118,-1,-1,-1,-1,-1,-1,-1,-1,-1,-1,-1,-1,-1,-1,-1,-1,-1,-1,-1,-1,-1,-1,-1,-1,-1,-1,-1,-1,-1,-1,-1,-1,-1,-1,-1,-1,-1,-1,-1,-1,-1,-1,-1,-1,-1,-1,-1,-1,-1,-1,-1,-1,-1,-1,-1,-1],"split_conditions":[4.1E1,1E0,7.6E1,-6E-1,3E0,2.06E4,-7.367191E1,6.8E0,1E0,7.2E0,6.2E1,7.8E1,-7.351864E1,1.3E1,1.32E1,4.08839E1,8.5E1,6.7E0,4.2E1,3.34E4,5.4E1,-7.401596E1,1.37E1,4.2E1,-7.351864E1,9.3E0,-1.1E0,7.4E1,6.9E1,4.104543E1,7.2E1,5.4E0,4E0,-7.376162E1,1E0,3.88E4,5.3E1,4.1E1,1.48E1,5.8E0,-1.17039E2,4.095631E1,4.070672E1,1.43E1,5.4E0,-7.390161E1,5.3153317E-2,2.4659649E-2,1.39E1,7.3E0,-6.9453776E-2,-1.1E0,8.9E0,4.078315E1,3.05E4,1.08E1,2E0,7.207011E-2,7.6E1,1.06E1,3E-1,-7.367013E1,8.1E1,-4.8529495E-2,7.511723E-2,9.882077E-3,-8.629078E-2,-9.717182E-3,-2.7902856E-2,-1.3821705E-2,5.9468545E-2,5.4123696E-2,-3.320446E-2,3.8112838E-2,-3.428808E-3,1.3812885E-2,5.5745807E-2,-2.4637202E-2,1.9076072E-2,2.1100927E-3,7.797076E-2,8.338132E-3,-7.099029E-2,-3.937696E-3,1.983166E-2,-1.0467455E-3,-3.0011812E-2,4.246645E-2,-2.3181906E-2,1.7548224E-3,-5.29157E-2,-6.7042105E-2,-5.006401E-2,-6.9570474E-2,-1.0369867E-3,-5.9759405E-2,2.0720957E-2,-6.393557E-2,-2.0436184E-2,2.2881601E-2,-1.2356808E-2,-8.040341E-2,-3.15056E-2,-2.4266994E-2,1.9459857E-2,-1.3572869E-2,-5.5972736E-2,-2.5851855E-2,-6.549456E-2,-8.392409E-3,-5.0053865E-2,-5.5341303E-2,-3.2039754E-2,2.3259105E-2,-4.1686304E-2,4.286901E-2,-6.4844474E-2,-2.223375E-2,3.0157877E-2],"split_indices":[12,19,14,19,8,4,1,13,15,2,14,18,1,13,10,0,15,2,11,4,17,1,13,12,1,13,19,11,17,0,18,2,6,1,6,4,17,18,10,13,1,0,0,2,13,1,0,0,13,2,0,19,2,0,4,13,8,0,3,13,19,1,14,0,0,0,0,0,0,0,0,0,0,0,0,0,0,0,0,0,0,0,0,0,0,0,0,0,0,0,0,0,0,0,0,0,0,0,0,0,0,0,0,0,0,0,0,0,0,0,0,0,0,0,0,0,0,0,0],"split_type":[0,0,0,0,0,0,0,0,0,0,0,0,0,0,0,0,0,0,0,0,0,0,0,0,0,0,0,0,0,0,0,0,0,0,0,0,0,0,0,0,0,0,0,0,0,0,0,0,0,0,0,0,0,0,0,0,0,0,0,0,0,0,0,0,0,0,0,0,0,0,0,0,0,0,0,0,0,0,0,0,0,0,0,0,0,0,0,0,0,0,0,0,0,0,0,0,0,0,0,0,0,0,0,0,0,0,0,0,0,0,0,0,0,0,0,0,0,0,0],"sum_hessian":[1.6694854E4,1.1574565E4,5.120288E3,1.0345516E4,1.2290502E3,3.870376E3,1.2499121E3,2.4489993E3,7.896516E3,8.729711E2,3.5607898E2,1.2599004E2,3.744386E3,7.278414E2,5.220707E2,1.7478172E2,2.2742175E3,4.4564795E3,3.4400369E3,4.6106728E1,8.268644E2,1.3360637E2,2.2247261E2,1.0859127E2,1.7398775E1,3.3499624E3,3.9442343E2,6.782906E2,4.955082E1,4.6529977E2,5.6770893E1,7.772218E1,9.705955E1,2.0513333E3,2.2288428E2,1.5476547E3,2.908825E3,1.7179763E3,1.7220604E3,3.1085793E1,1.5020933E1,2.6417926E2,5.626851E2,1.6456305E1,1.1715007E2,2.2083705E2,1.6355647E0,1.1267715E0,1.074645E2,1.1309924E1,6.0888505E0,4.9569043E2,2.854272E3,2.7113354E1,3.673101E2,1.2289959E2,5.55391E2,2.1238172E0,4.7427002E1,4.2733215E2,3.7967632E1,1.1778924E1,4.4991966E1,3.9161851E0,7.380599E1,8.346726E1,1.3592285E1,1.4948652E3,5.564681E2,1.1849749E2,1.04386795E2,1.4765316E3,7.112302E1,1.5377732E3,1.3710518E3,8.9953064E2,8.1844574E2,1.5562434E3,1.65817E2,1.4532833E0,2.963251E1,1.10921955E1,3.928738E0,1.7670796E2,8.7471306E1,1.4913696E2,4.1354816E2,1.2323405E1,4.1329E0,1.287023E1,1.0427984E2,1.1939822E2,1.0143883E2,1.0603091E2,1.4335921E0,2.4117382E0,8.898187E0,1.10967964E2,3.8472247E2,3.4285074E2,2.5114214E3,9.572197E0,1.7541157E1,4.3317345E1,3.2399274E2,3.5856106E1,8.704348E1,1.8719122E1,5.366719E2,2.0975712E1,2.645129E1,1.9372028E2,2.3361188E2,2.5997185E1,1.1970447E1,1.8737787E0,9.905146E0,1.1411931E1,3.3580036E1],"tree_param":{"num_deleted":"0","num_feature":"21","num_nodes":"119","size_leaf_vector":"1"}},{"base_weights":[2.00589E-3,7.927459E-2,-9.0285784E-1,1.8754552E-1,-5.232865E-1,2.6300925E-1,-1.0800395E0,1.1183476E-1,1.4001302E0,-2.5348976E-1,-1.0174655E0,5.6661254E-1,-4.0641567E-1,-1.261233E0,-6.085433E-1,7.227993E-1,-4.6338763E-2,-1.073567E0,1.4277985E0,-5.4749256E-1,-1.8302295E-2,-1.1427444E0,-7.4529296E-1,-1.2607385E0,7.29359E-1,-6.7220867E-1,6.5680593E-1,1.5547577E-1,-1.2760758E0,-1.1587113E0,-5.181195E-1,1.0006542E0,-5.3458476E-1,9.3773104E-2,-3.0773947E-1,-8.074325E-2,3.0254934E-2,1.4481232E0,-3.4731197E-1,-7.551153E-2,-6.8133396E-1,-1.3010389E-1,4.0450025E-1,4.583457E-2,-1.1986208E0,-3.7257937E-1,-9.5260733E-1,-1.7253323E-2,-9.5294E-2,8.672568E-1,-1.2130682E0,-8.0028564E-1,2.3335375E-1,-5.7271E-2,1.0946411E0,-6.773374E-2,7.939743E-2,-9.785042E-1,-1.3033869E0,-6.765335E-2,-1.2925297E0,-6.031927E-1,-7.7761166E-2,-5.3121716E-2,5.3080827E-2,-5.3203043E-2,-1.2629121E-3,2.0853985E-2,-9.302854E-3,-5.0991313E-3,-2.7554883E-2,7.264642E-2,-2.235837E-2,6.340731E-2,-8.7890446E-2,-1.2839394E-2,6.363385E-2,4.351835E-2,-3.6492147E-2,2.2697968E-2,-8.734432E-3,2.4968237E-2,-3.2061916E-2,-6.743608E-2,1.4875407E-2,-6.256842E-2,-4.9495414E-2,6.079759E-3,-4.143465E-2,5.0753117E-2,-4.8759665E-2,-2.6890544E-2,2.9002214E-2,4.8654523E-2,-1.7699925E-2,-7.3882446E-2,6.886688E-3,-1.8169543E-2,-6.37921E-2,-5.5985488E-2,5.4620802E-2,7.6859035E-2,5.382584E-3,-3.1298574E-2,-6.648185E-2,-6.704813E-2,-5.0020196E-2,-5.0445765E-2,2.019661E-2,-7.613965E-2,-2.9830476E-2,-3.234167E-2,2.7035046E-2,-2.1598801E-2,2.2974148E-2],"categories":[],"categories_nodes":[],"categories_segments":[],"categories_sizes":[],"default_left":[0,0,0,0,0,0,0,0,0,0,0,0,0,0,0,0,0,0,0,0,0,0,0,0,0,0,0,0,0,0,0,0,0,0,0,0,0,0,0,0,0,0,0,0,0,0,0,0,0,0,0,0,0,0,0,0,0,0,0,0,0,0,0,0,0,0,0,0,0,0,0,0,0,0,0,0,0,0,0,0,0,0,0,0,0,0,0,0,0,0,0,0,0,0,0,0,0,0,0,0,0,0,0,0,0,0,0,0,0,0,0,0,0,0,0],"id":11,"left_children":[1,3,5,7,9,11,13,15,17,19,21,23,25,27,29,31,33,35,37,39,41,43,45,47,49,51,53,55,57,59,61,63,65,67,69,-1,-1,71,73,75,77,79,81,83,85,87,89,91,-1,93,95,97,99,-1,101,-1,-1,103,105,107,109,111,113,-1,-1,-1,-1,-1,-1,-1,-1,-1,-1,-1,-1,-1,-1,-1,-1,-1,-1,-1,-1,-1,-1,-1,-1,-1,-1,-1,-1,-1,-1,-1,-1,-1,-1,-1,-1,-1,-1,-1,-1,-1,-1,-1,-1,-1,-1,-1,-1,-1,-1,-1,-1],"loss_changes":[1.1597732E3,9.971361E2,2.698639E2,1.1892415E3,3.101364E2,3.5384613E1,9.603198E1,1.1785688E3,5.3637573E1,1.0420904E2,2.7170166E1,3.6433746E1,1.5857799E1,1.739038E1,1.5144043E1,8.767661E2,3.548654E2,9.14749E0,2.768103E1,4.2261765E1,3.9684338E1,3.7306274E1,1.9883057E1,8.095451E0,3.0592716E1,5.3057613E0,1.0261805E1,2.2417135E1,5.3011475E0,6.316944E0,1.0203514E1,2.5951904E2,1.2255904E2,5.707884E2,1.6924216E2,0E0,0E0,7.434204E0,2.3497692E1,3.6767464E1,3.9905792E1,1.7365677E1,1.7738363E1,9.578392E0,4.659424E0,2.1571636E1,8.440964E0,1.701876E0,0E0,1.372934E1,2.9652433E0,7.6171513E0,8.479984E0,0E0,4.069497E0,0E0,0E0,8.084915E0,7.062378E0,3.0031383E0,5.3437805E0,1.1789825E1,8.847532E0,0E0,0E0,0E0,0E0,0E0,0E0,0E0,0E0,0E0,0E0,0E0,0E0,0E0,0E0,0E0,0E0,0E0,0E0,0E0,0E0,0E0,0E0,0E0,0E0,0E0,0E0,0E0,0E0,0E0,0E0,0E0,0E0,0E0,0E0,0E0,0E0,0E0,0E0,0E0,0E0,0E0,0E0,0E0,0E0,0E0,0E0,0E0,0E0,0E0,0E0,0E0,0E0],"parents":[2147483647,0,0,1,1,2,2,3,3,4,4,5,5,6,6,7,7,8,8,9,9,10,10,11,11,12,12,13,13,14,14,15,15,16,16,17,17,18,18,19,19,20,20,21,21,22,22,23,23,24,24,25,25,26,26,27,27,28,28,29,29,30,30,31,31,32,32,33,33,34,34,37,37,38,38,39,39,40,40,41,41,42,42,43,43,44,44,45,45,46,46,47,47,49,49,50,50,51,51,52,52,54,54,57,57,58,58,59,59,60,60,61,61,62,62],"right_children":[2,4,6,8,10,12,14,16,18,20,22,24,26,28,30,32,34,36,38,40,42,44,46,48,50,52,54,56,58,60,62,64,66,68,70,-1,-1,72,74,76,78,80,82,84,86,88,90,92,-1,94,96,98,100,-1,102,-1,-1,104,106,108,110,112,114,-1,-1,-1,-1,-1,-1,-1,-1,-1,-1,-1,-1,-1,-1,-1,-1,-1,-1,-1,-1,-1,-1,-1,-1,-1,-1,-1,-1,-1,-1,-1,-1,-1,-1,-1,-1,-1,-1,-1,-1,-1,-1,-1,-1,-1,-1,-1,-1,-1,-1,-1,-1],"split_conditions":[7.8E1,3.843237E1,8E0,3.4286724E1,1E0,3E0,1.06E1,7.7E0,1.1E1,-7.38719E1,-7.378827E1,-1.19223E2,9.8E1,-3.419933E1,7.7E1,5.946474E0,5.9E1,6.9E1,5.3E1,-7.401193E1,9.5E1,2E0,2.9E1,2.9E0,3E0,7.6E0,7.5E1,8.4E1,6E0,4.6E1,1.32E1,-2.1805908E1,1.577732E1,-1.7644402E1,-7.387979E1,-8.074325E-2,3.0254934E-2,1.54E1,-7.329274E1,-7.401893E1,4.064751E1,5.2E0,1.2E1,5.4E0,-7.385265E1,8.6E1,6.4E0,8.4E1,-9.5294E-2,6.671997E0,8.2E1,-7.332204E1,4.082199E1,-5.7271E-2,8.6E1,-6.773374E-2,7.939743E-2,-7.341673E1,4.103178E1,7E0,4.080205E1,6.369357E1,8.5E1,-5.3121716E-2,5.3080827E-2,-5.3203043E-2,-1.2629121E-3,2.0853985E-2,-9.302854E-3,-5.0991313E-3,-2.7554883E-2,7.264642E-2,-2.235837E-2,6.340731E-2,-8.7890446E-2,-1.2839394E-2,6.363385E-2,4.351835E-2,-3.6492147E-2,2.2697968E-2,-8.734432E-3,2.4968237E-2,-3.2061916E-2,-6.743608E-2,1.4875407E-2,-6.256842E-2,-4.9495414E-2,6.079759E-3,-4.143465E-2,5.0753117E-2,-4.8759665E-2,-2.6890544E-2,2.9002214E-2,4.8654523E-2,-1.7699925E-2,-7.3882446E-2,6.886688E-3,-1.8169543E-2,-6.37921E-2,-5.5985488E-2,5.4620802E-2,7.6859035E-2,5.382584E-3,-3.1298574E-2,-6.648185E-2,-6.704813E-2,-5.0020196E-2,-5.0445765E-2,2.019661E-2,-7.613965E-2,-2.9830476E-2,-3.234167E-2,2.7035046E-2,-2.1598801E-2,2.2974148E-2],"split_indices":[3,9,2,9,7,18,16,16,2,1,1,1,6,9,11,9,17,12,3,1,18,18,7,16,5,2,14,3,5,14,2,9,9,9,1,0,0,16,1,1,0,16,6,16,1,12,2,14,0,9,11,1,0,0,11,0,0,1,0,18,0,9,12,0,0,0,0,0,0,0,0,0,0,0,0,0,0,0,0,0,0,0,0,0,0,0,0,0,0,0,0,0,0,0,0,0,0,0,0,0,0,0,0,0,0,0,0,0,0,0,0,0,0,0,0],"split_type":[0,0,0,0,0,0,0,0,0,0,0,0,0,0,0,0,0,0,0,0,0,0,0,0,0,0,0,0,0,0,0,0,0,0,0,0,0,0,0,0,0,0,0,0,0,0,0,0,0,0,0,0,0,0,0,0,0,0,0,0,0,0,0,0,0,0,0,0,0,0,0,0,0,0,0,0,0,0,0,0,0,0,0,0,0,0,0,0,0,0,0,0,0,0,0,0,0,0,0,0,0,0,0,0,0,0,0,0,0,0,0,0,0,0,0],"sum_hessian":[1.658568E4,1.5281652E4,1.3040281E3,1.29546E4,2.3270527E3,1.7196991E2,1.1320582E3,1.219431E4,7.6029004E2,1.5062365E3,8.208162E2,1.1841769E2,5.3552216E1,8.16577E2,3.1548123E2,2.50703E3,9.687279E3,7.991649E0,7.522984E2,6.688249E2,8.3741156E2,5.5989984E2,2.609164E2,9.13225E0,1.0928544E2,4.3136383E1,1.0415832E1,8.368305E0,8.082087E2,4.28646E1,2.7261664E2,2.053463E3,4.53567E2,6.307223E3,3.3800566E3,6.071769E0,1.91988E0,7.4396436E2,8.334041E0,1.4810574E2,5.207192E2,6.628314E2,1.7458011E2,2.5147707E1,5.3475214E2,9.425687E1,1.6665956E2,3.4702404E0,5.6620097E0,1.025581E2,6.72734E0,3.789326E1,5.243125E0,1.7199676E0,8.695864E0,4.10014E0,4.268165E0,7.103755E1,7.3717114E2,4.8474646E0,3.801714E1,2.2816705E2,4.4449574E1,5.8464905E1,1.994998E3,2.2185057E2,2.317164E2,2.9260596E3,3.3811636E3,1.8322917E3,1.5477648E3,7.4231573E2,1.6486003E0,3.931813E0,4.4022274E0,1.3126543E2,1.6840313E1,1.5271548E1,5.054476E2,4.6357887E1,6.164736E2,1.6053922E2,1.4040886E1,3.1781507E0,2.1969557E1,4.2288223E2,1.1186989E2,4.559286E1,4.8664E1,1.3926309E0,1.6526692E2,1.9074501E0,1.5627904E0,9.456622E1,7.9918733E0,5.546957E0,1.180383E0,2.0668863E1,1.7224398E1,1.9183011E0,3.3248239E0,5.619008E0,3.0768561E0,3.6836697E1,3.4200855E1,6.5278705E2,8.438411E1,1.237688E0,3.6097765E0,2.7672722E1,1.0344417E1,2.2020071E2,7.966343E0,2.6905937E1,1.7543634E1],"tree_param":{"num_deleted":"0","num_feature":"21","num_nodes":"115","size_leaf_vector":"1"}},{"base_weights":[6.9400035E-3,7.9472736E-2,-8.3584666E-1,1.8192133E-1,-4.9541542E-1,2.920049E-1,-1.0019351E0,1.0931791E-1,1.3641871E0,-2.2837213E-1,-9.843972E-1,5.6018525E-1,-2.8349677E-1,-1.2008001E0,-5.779352E-1,6.849738E-1,-3.604304E-2,-5.1625496E-1,1.4066486E0,-4.8156622E-1,5.8995383E-3,1.4985861E-1,-1.0249498E0,-6.9572234E-1,7.479509E-1,-7.472014E-2,-8.770782E-2,8.7128885E-2,-1.2182895E0,-9.295785E-1,-4.072148E-1,9.5791763E-1,-5.389417E-1,-3.886047E-1,6.625937E-2,1.4105439E-1,-7.717537E-2,1.4207058E0,-1.0001396E0,2.647593E-1,-5.792033E-1,-2.2859155E-1,2.5460717E-1,-3.3113724E-1,8.7818575E-1,-1.228069E0,-7.9304606E-1,3.7897813E-1,-1.6063795E0,8.573476E-1,-6.991574E-2,6.212731E-1,-4.669962E-1,1.4098271E0,-6.7442946E-2,1.4003083E-1,-1.2325851E0,-7.2127324E-1,-1.2603195E0,-9.2235106E-1,-2.4154271E-1,5.8577646E-2,2.0969747E-2,-5.1503897E-2,-2.803401E-3,-1.1213979E-2,-3.0104006E-2,5.6464817E-2,-4.500761E-3,-4.1246444E-2,3.8334902E-2,7.128131E-2,3.1027898E-2,1.1717944E-2,-7.340644E-2,3.3917006E-2,-2.0408368E-2,3.8770385E-2,-3.0828893E-2,1.476897E-2,-1.5867306E-2,2.3887083E-2,1.9951528E-3,3.1182E-2,-3.3675224E-2,-3.8836144E-3,6.1849575E-2,4.2328577E-2,-6.1972648E-2,-4.159167E-2,1.658213E-2,3.1483527E-2,-1.771695E-2,4.349412E-3,-9.459289E-2,6.1981976E-2,2.5725817E-2,-2.241619E-2,6.4382546E-2,-3.3328466E-2,5.3617883E-2,7.638279E-2,2.3182852E-2,-5.0512284E-2,2.5037358E-2,-4.558438E-2,-6.369134E-2,-5.027304E-2,1.668134E-3,-7.043742E-2,-2.5468433E-2,-5.6286313E-2,2.8208558E-2,-3.549964E-5,-2.5814572E-2],"categories":[],"categories_nodes":[],"categories_segments":[],"categories_sizes":[],"default_left":[0,0,0,0,0,0,0,0,0,0,0,0,0,0,0,0,0,0,0,0,0,0,0,0,0,0,0,0,0,0,0,0,0,0,0,0,0,0,0,0,0,0,0,0,0,0,0,0,0,0,0,0,0,0,0,0,0,0,0,0,0,0,0,0,0,0,0,0,0,0,0,0,0,0,0,0,0,0,0,0,0,0,0,0,0,0,0,0,0,0,0,0,0,0,0,0,0,0,0,0,0,0,0,0,0,0,0,0,0,0,0,0,0,0,0],"id":12,"left_children":[1,3,5,7,9,11,13,15,17,19,21,23,25,27,29,31,33,35,37,39,41,43,45,47,49,-1,51,53,55,57,59,61,63,65,67,69,-1,71,73,75,77,79,81,83,85,87,89,91,93,95,-1,97,99,101,-1,103,105,107,109,111,113,-1,-1,-1,-1,-1,-1,-1,-1,-1,-1,-1,-1,-1,-1,-1,-1,-1,-1,-1,-1,-1,-1,-1,-1,-1,-1,-1,-1,-1,-1,-1,-1,-1,-1,-1,-1,-1,-1,-1,-1,-1,-1,-1,-1,-1,-1,-1,-1,-1,-1,-1,-1,-1,-1],"loss_changes":[1.01221716E3,8.9804376E2,2.460888E2,1.1106614E3,3.0093066E2,2.6272877E1,9.576221E1,1.0203387E3,6.050293E1,8.856032E1,3.7610413E1,2.7816769E1,1.2777449E1,1.7625977E1,2.1663193E1,8.217355E2,3.511849E2,1.1874155E1,2.6199097E1,5.2438446E1,4.534063E1,1.0443816E1,3.6066406E1,1.5849842E1,2.4955269E1,0E0,1.3179343E1,2.3466707E1,1.5074707E1,7.304451E0,2.1023071E1,2.3080017E2,1.0640112E2,7.668384E1,1.2538846E3,7.548403E0,0E0,1.9836426E0,3.1400447E0,2.3570137E1,3.2618042E1,1.870379E1,1.805546E1,6.3630586E0,4.143467E0,1.0906494E1,1.6415863E1,1.6850344E0,4.3320217E0,1.2061081E1,0E0,1.27899685E1,1.0483327E1,5.0849915E-3,0E0,4.194833E0,8.890747E0,1.6222115E1,4.268326E0,1.8842403E1,1.25531E1,0E0,0E0,0E0,0E0,0E0,0E0,0E0,0E0,0E0,0E0,0E0,0E0,0E0,0E0,0E0,0E0,0E0,0E0,0E0,0E0,0E0,0E0,0E0,0E0,0E0,0E0,0E0,0E0,0E0,0E0,0E0,0E0,0E0,0E0,0E0,0E0,0E0,0E0,0E0,0E0,0E0,0E0,0E0,0E0,0E0,0E0,0E0,0E0,0E0,0E0,0E0,0E0,0E0,0E0],"parents":[2147483647,0,0,1,1,2,2,3,3,4,4,5,5,6,6,7,7,8,8,9,9,10,10,11,11,12,12,13,13,14,14,15,15,16,16,17,17,18,18,19,19,20,20,21,21,22,22,23,23,24,24,26,26,27,27,28,28,29,29,30,30,31,31,32,32,33,33,34,34,35,35,37,37,38,38,39,39,40,40,41,41,42,42,43,43,44,44,45,45,46,46,47,47,48,48,49,49,51,51,52,52,53,53,55,55,56,56,57,57,58,58,59,59,60,60],"right_children":[2,4,6,8,10,12,14,16,18,20,22,24,26,28,30,32,34,36,38,40,42,44,46,48,50,-1,52,54,56,58,60,62,64,66,68,70,-1,72,74,76,78,80,82,84,86,88,90,92,94,96,-1,98,100,102,-1,104,106,108,110,112,114,-1,-1,-1,-1,-1,-1,-1,-1,-1,-1,-1,-1,-1,-1,-1,-1,-1,-1,-1,-1,-1,-1,-1,-1,-1,-1,-1,-1,-1,-1,-1,-1,-1,-1,-1,-1,-1,-1,-1,-1,-1,-1,-1,-1,-1,-1,-1,-1,-1,-1,-1,-1,-1,-1],"split_conditions":[7.8E1,3.843237E1,7.9E0,3.4286724E1,1E0,3E0,1.04E1,7.7E0,8E0,-7.385265E1,-1.17039E2,-1.1716472E2,1.6E1,-3.4116302E1,8.1E1,5.946474E0,-2.976382E1,4.2E1,5.8E1,-7.41319E1,3.1E1,4.569221E1,-7.385265E1,2.9E0,3E0,-7.472014E-2,7.1E1,1E0,5.7E0,-6.672005E0,-7.36068E1,4.096154E1,1.577732E1,-7.385265E1,-2.9070467E1,3.4E1,-7.717537E-2,8.7E1,5.8E0,2.9E1,4.060651E1,5.4E0,4E1,6E0,-1.19223E2,1.1E1,4.2E1,1.2E0,7E1,4.10883E1,-6.991574E-2,-7.329274E1,7.1E1,3.181651E1,-6.7442946E-2,9E0,1.3E1,9E1,8.4E1,1.41E1,8.7E1,5.8577646E-2,2.0969747E-2,-5.1503897E-2,-2.803401E-3,-1.1213979E-2,-3.0104006E-2,5.6464817E-2,-4.500761E-3,-4.1246444E-2,3.8334902E-2,7.128131E-2,3.1027898E-2,1.1717944E-2,-7.340644E-2,3.3917006E-2,-2.0408368E-2,3.8770385E-2,-3.0828893E-2,1.476897E-2,-1.5867306E-2,2.3887083E-2,1.9951528E-3,3.1182E-2,-3.3675224E-2,-3.8836144E-3,6.1849575E-2,4.2328577E-2,-6.1972648E-2,-4.159167E-2,1.658213E-2,3.1483527E-2,-1.771695E-2,4.349412E-3,-9.459289E-2,6.1981976E-2,2.5725817E-2,-2.241619E-2,6.4382546E-2,-3.3328466E-2,5.3617883E-2,7.638279E-2,2.3182852E-2,-5.0512284E-2,2.5037358E-2,-4.558438E-2,-6.369134E-2,-5.027304E-2,1.668134E-3,-7.043742E-2,-2.5468433E-2,-5.6286313E-2,2.8208558E-2,-3.549964E-5,-2.5814572E-2],"split_indices":[3,9,2,9,7,18,16,16,18,1,1,1,18,9,11,9,9,3,11,1,15,9,1,16,5,0,18,12,10,9,1,0,9,1,9,3,0,5,2,5,0,13,5,7,1,15,20,2,11,0,0,1,7,0,0,2,5,18,3,16,3,0,0,0,0,0,0,0,0,0,0,0,0,0,0,0,0,0,0,0,0,0,0,0,0,0,0,0,0,0,0,0,0,0,0,0,0,0,0,0,0,0,0,0,0,0,0,0,0,0,0,0,0,0,0],"split_type":[0,0,0,0,0,0,0,0,0,0,0,0,0,0,0,0,0,0,0,0,0,0,0,0,0,0,0,0,0,0,0,0,0,0,0,0,0,0,0,0,0,0,0,0,0,0,0,0,0,0,0,0,0,0,0,0,0,0,0,0,0,0,0,0,0,0,0,0,0,0,0,0,0,0,0,0,0,0,0,0,0,0,0,0,0,0,0,0,0,0,0,0,0,0,0,0,0,0,0,0,0,0,0,0,0,0,0,0,0,0,0,0,0,0,0],"sum_hessian":[1.6556453E4,1.5245303E4,1.3111505E3,1.2939999E4,2.3053037E3,1.6820026E2,1.1429502E3,1.21923545E4,7.476449E2,1.4919728E3,8.133309E2,1.1475278E2,5.3447487E1,7.7678815E2,3.661621E2,2.4572974E3,9.735057E3,1.62631E1,7.313818E2,7.1652136E2,7.7545135E2,2.7981926E1,7.85349E2,1.4573019E1,1.00179756E2,6.51585E0,4.6931637E1,1.0353739E1,7.664344E2,1.18217445E2,2.4794466E2,2.0094008E3,4.478966E2,2.1888594E3,7.5461973E3,1.0443373E1,5.8197265E0,7.2754224E2,3.839572E0,8.2695526E1,6.3382587E2,3.9917487E2,3.762765E2,1.7180841E1,1.08010845E1,4.1636703E2,3.6898193E2,6.95225E0,7.620769E0,9.5892586E1,4.2871714E0,1.613446E1,3.0797176E1,5.3989487E0,4.9547906E0,7.8906875E0,7.585437E2,7.448595E1,4.37315E1,5.9224934E1,1.8871973E2,1.4378293E3,5.715714E2,2.2148672E2,2.2640987E2,1.2379691E3,9.508902E2,9.663699E2,6.5798276E3,3.9799178E0,6.463455E0,7.2231866E2,5.2235613E0,1.1926717E0,2.6469004E0,5.121236E1,3.1483166E1,1.6487913E1,6.1733795E2,5.7484077E1,3.416908E2,1.8391496E2,1.9236153E2,4.3178573E0,1.2862985E1,3.1617396E0,7.639345E0,1.8718581E0,4.1449518E2,3.569327E2,1.20492325E1,5.2863827E0,1.6658676E0,1.199717E0,6.421052E0,4.4100323E1,5.179226E1,6.3190436E0,9.815417E0,2.7764557E1,3.03262E0,4.2545514E0,1.1443974E0,1.453859E0,6.4368286E0,8.901715E1,6.6952655E2,5.3867622E1,2.0618326E1,3.5782894E1,7.9486055E0,5.2310856E1,6.9140787E0,1.0110131E2,8.761841E1],"tree_param":{"num_deleted":"0","num_feature":"21","num_nodes":"115","size_leaf_vector":"1"}},{"base_weights":[-6.0129073E-3,-7.6082325E-1,7.5205676E-2,5.323193E-1,-8.855174E-1,1.9714648E-1,-2.4435458E-1,1.1966887E0,-1.1427056E0,-1.0183316E0,-3.9487743E-1,-1.4546904E-1,2.916912E-1,-1.7624266E-1,-8.441506E-1,1.3867073E0,6.0776985E-1,1.9802306E-2,-1.1987584E0,-6.931678E-1,-1.1569563E0,-3.0293053E-1,-7.318165E-1,-3.5812493E-2,-5.032696E-1,3.7319234E-1,-2.561114E-1,-2.4325378E-1,4.0594433E-2,-9.1329306E-1,3.5943818E-1,7.0824064E-2,1.1367782E-2,-3.130794E-1,1.0994868E0,-1.2560441E0,9.854433E-3,3.452824E-2,-8.184387E-1,-1.2499198E0,-9.386667E-1,-2.634326E-1,-1.2774154E0,3.3576256E-1,-8.662261E-1,-9.1394395E-2,6.225645E-1,-2.9005146E-1,-1.0095439E0,5.53755E-1,1.4555928E-1,-1.4503235E-1,-8.6550397E-1,-2.8880224E-1,2.827699E-1,4.1869137E-1,-3.6125207E-1,-9.7768253E-1,8.504276E-2,7.375274E-1,-6.1126727E-1,1.0876941E-2,-8.5511185E-2,1.5696798E-2,6.970762E-2,-7.0609204E-2,-4.494678E-2,-4.975705E-2,1.933868E-2,-3.997639E-4,-4.6440657E-2,-6.4576074E-2,-5.162251E-2,-1.1409385E-2,-4.9927533E-2,-3.3701327E-2,-9.466314E-3,-7.802864E-2,1.8174285E-2,-3.471761E-2,7.837491E-2,-5.4718446E-2,-2.4663782E-2,9.752556E-3,-1.6783683E-2,7.3733896E-2,-4.7054486E-3,-3.0792397E-3,-5.0112236E-2,-5.3659208E-2,7.094447E-2,3.0787278E-2,-4.0029667E-2,2.9828269E-2,-1.704591E-2,-1.0014004E-2,5.0042983E-2,-4.6898473E-2,-9.216507E-3,-8.942116E-3,-2.3467736E-2,-3.9634805E-2,2.4544425E-2,4.6696164E-2,-9.480373E-3,4.2554424E-3,-2.1062182E-2,-2.8272614E-2,-5.4457486E-2,-5.185935E-2,2.4252642E-2,-4.755211E-2,4.9586106E-2,7.949463E-3,-6.1206665E-2],"categories":[],"categories_nodes":[],"categories_segments":[],"categories_sizes":[],"default_left":[0,0,0,0,0,0,0,0,0,0,0,1,0,0,0,0,0,0,0,0,0,0,0,0,0,0,0,0,0,0,0,0,0,0,0,0,0,0,0,0,0,0,0,0,0,0,0,0,0,0,0,0,0,0,0,0,0,0,0,0,0,0,0,0,0,0,0,0,0,0,0,0,0,0,0,0,0,0,0,0,0,0,0,0,0,0,0,0,0,0,0,0,0,0,0,0,0,0,0,0,0,0,0,0,0,0,0,0,0,0,0,0,0,0,0],"id":13,"left_children":[1,3,5,7,9,11,13,15,17,